{"learner":{"attributes":{"scikit_learn":"{\"_estimator_type\": \"classifier\"}"},"feature_names":["Quantity","Price Per Unit","Total Spent","Payment Method","Location","tfidf_none"],"feature_types":["float","float","float","int","int","float"],"gradient_booster":{"model":{"cats":{"enc":[],"feature_segments":[],"sorted_idx":[]},"gbtree_model_param":{"num_parallel_tree":"1","num_trees":"1100"},"iteration_indptr":[0,11,22,33,44,55,66,77,88,99,110,121,132,143,154,165,176,187,198,209,220,231,242,253,264,275,286,297,308,319,330,341,352,363,374,385,396,407,418,429,440,451,462,473,484,495,506,517,528,539,550,561,572,583,594,605,616,627,638,649,660,671,682,693,704,715,726,737,748,759,770,781,792,803,814,825,836,847,858,869,880,891,902,913,924,935,946,957,968,979,990,1001,1012,1023,1034,1045,1056,1067,1078,1089,1100],"tree_info":[0,1,2,3,4,5,6,7,8,9,10,0,1,2,3,4,5,6,7,8,9,10,0,1,2,3,4,5,6,7,8,9,10,0,1,2,3,4,5,6,7,8,9,10,0,1,2,3,4,5,6,7,8,9,10,0,1,2,3,4,5,6,7,8,9,10,0,1,2,3,4,5,6,7,8,9,10,0,1,2,3,4,5,6,7,8,9,10,0,1,2,3,4,5,6,7,8,9,10,0,1,2,3,4,5,6,7,8,9,10,0,1,2,3,4,5,6,7,8,9,10,0,1,2,3,4,5,6,7,8,9,10,0,1,2,3,4,5,6,7,8,9,10,0,1,2,3,4,5,6,7,8,9,10,0,1,2,3,4,5,6,7,8,9,10,0,1,2,3,4,5,6,7,8,9,10,0,1,2,3,4,5,6,7,8,9,10,0,1,2,3,4,5,6,7,8,9,10,0,1,2,3,4,5,6,7,8,9,10,0,1,2,3,4,5,6,7,8,9,10,0,1,2,3,4,5,6,7,8,9,10,0,1,2,3,4,5,6,7,8,9,10,0,1,2,3,4,5,6,7,8,9,10,0,1,2,3,4,5,6,7,8,9,10,0,1,2,3,4,5,6,7,8,9,10,0,1,2,3,4,5,6,7,8,9,10,0,1,2,3,4,5,6,7,8,9,10,0,1,2,3,4,5,6,7,8,9,10,0,1,2,3,4,5,6,7,8,9,10,0,1,2,3,4,5,6,7,8,9,10,0,1,2,3,4,5,6,7,8,9,10,0,1,2,3,4,5,6,7,8,9,10,0,1,2,3,4,5,6,7,8,9,10,0,1,2,3,4,5,6,7,8,9,10,0,1,2,3,4,5,6,7,8,9,10,0,1,2,3,4,5,6,7,8,9,10,0,1,2,3,4,5,6,7,8,9,10,0,1,2,3,4,5,6,7,8,9,10,0,1,2,3,4,5,6,7,8,9,10,0,1,2,3,4,5,6,7,8,9,10,0,1,2,3,4,5,6,7,8,9,10,0,1,2,3,4,5,6,7,8,9,10,0,1,2,3,4,5,6,7,8,9,10,0,1,2,3,4,5,6,7,8,9,10,0,1,2,3,4,5,6,7,8,9,10,0,1,2,3,4,5,6,7,8,9,10,0,1,2,3,4,5,6,7,8,9,10,0,1,2,3,4,5,6,7,8,9,10,0,1,2,3,4,5,6,7,8,9,10,0,1,2,3,4,5,6,7,8,9,10,0,1,2,3,4,5,6,7,8,9,10,0,1,2,3,4,5,6,7,8,9,10,0,1,2,3,4,5,6,7,8,9,10,0,1,2,3,4,5,6,7,8,9,10,0,1,2,3,4,5,6,7,8,9,10,0,1,2,3,4,5,6,7,8,9,10,0,1,2,3,4,5,6,7,8,9,10,0,1,2,3,4,5,6,7,8,9,10,0,1,2,3,4,5,6,7,8,9,10,0,1,2,3,4,5,6,7,8,9,10,0,1,2,3,4,5,6,7,8,9,10,0,1,2,3,4,5,6,7,8,9,10,0,1,2,3,4,5,6,7,8,9,10,0,1,2,3,4,5,6,7,8,9,10,0,1,2,3,4,5,6,7,8,9,10,0,1,2,3,4,5,6,7,8,9,10,0,1,2,3,4,5,6,7,8,9,10,0,1,2,3,4,5,6,7,8,9,10,0,1,2,3,4,5,6,7,8,9,10,0,1,2,3,4,5,6,7,8,9,10,0,1,2,3,4,5,6,7,8,9,10,0,1,2,3,4,5,6,7,8,9,10,0,1,2,3,4,5,6,7,8,9,10,0,1,2,3,4,5,6,7,8,9,10,0,1,2,3,4,5,6,7,8,9,10,0,1,2,3,4,5,6,7,8,9,10,0,1,2,3,4,5,6,7,8,9,10,0,1,2,3,4,5,6,7,8,9,10,0,1,2,3,4,5,6,7,8,9,10,0,1,2,3,4,5,6,7,8,9,10,0,1,2,3,4,5,6,7,8,9,10,0,1,2,3,4,5,6,7,8,9,10,0,1,2,3,4,5,6,7,8,9,10,0,1,2,3,4,5,6,7,8,9,10,0,1,2,3,4,5,6,7,8,9,10,0,1,2,3,4,5,6,7,8,9,10,0,1,2,3,4,5,6,7,8,9,10,0,1,2,3,4,5,6,7,8,9,10,0,1,2,3,4,5,6,7,8,9,10,0,1,2,3,4,5,6,7,8,9,10,0,1,2,3,4,5,6,7,8,9,10,0,1,2,3,4,5,6,7,8,9,10,0,1,2,3,4,5,6,7,8,9,10,0,1,2,3,4,5,6,7,8,9,10,0,1,2,3,4,5,6,7,8,9,10,0,1,2,3,4,5,6,7,8,9,10,0,1,2,3,4,5,6,7,8,9,10,0,1,2,3,4,5,6,7,8,9,10,0,1,2,3,4,5,6,7,8,9,10,0,1,2,3,4,5,6,7,8,9,10],"trees":[{"base_weights":[1.8843019E-6,9.8335147E-1,-5.726322E-1,-1.720642E-1,1.1467685E0,-1.7231189E-1,-2.7112117E-1,-3.5360515E-1,2.7782632E-2,1.02382265E-2,-1.4128423E-1],"categories":[],"categories_nodes":[],"categories_segments":[],"categories_sizes":[],"default_left":[0,0,0,0,0,0,1,0,0,0,0],"id":0,"left_children":[1,3,5,-1,-1,-1,7,9,-1,-1,-1],"loss_changes":[1.0217744E3,2.954081E3,4.46167E-1,0E0,0E0,0E0,2.8706652E-1,3.3989418E-1,0E0,0E0,0E0],"parents":[2147483647,0,0,1,1,2,2,6,6,7,7],"right_children":[2,4,6,-1,-1,-1,8,10,-1,-1,-1],"split_conditions":[3E0,2E0,1.000001E1,-1.720642E-1,1.1467685E0,-1.7231189E-1,4E0,4.5E0,2.7782632E-2,1.02382265E-2,-1.4128423E-1],"split_indices":[1,1,1,0,0,0,0,2,0,0,0],"split_type":[0,0,0,0,0,0,0,0,0,0,0],"sum_hessian":[1.812554E3,6.667933E2,1.1457607E3,4.311613E2,2.3563202E2,1.1382839E3,7.476785E0,6.1173697E0,1.3594155E0,1.5859847E0,4.531385E0],"tree_param":{"num_deleted":"0","num_feature":"6","num_nodes":"11","size_leaf_vector":"1"}},{"base_weights":[1.2538368E-6,3.3459115E-1,-1.6906756E-1,-5.569276E-1,1.6301951E0,-1.6906415E-1,2.992041E-2,4.678869E-1,5.619247E-1,1.7808773E-1,-1.6779679E-1,-1.2270997E-1,1.0447441E-1,6.3930154E-2,-3.0034347E-3],"categories":[],"categories_nodes":[],"categories_segments":[],"categories_sizes":[],"default_left":[1,1,0,0,1,0,0,0,0,0,0,0,0,0,0],"id":1,"left_children":[1,3,-1,5,7,-1,9,-1,-1,-1,11,-1,13,-1,-1],"loss_changes":[3.056859E2,1.1758505E3,0E0,2.3605804E0,4.1905518E0,0E0,9.554639E-1,0E0,0E0,0E0,4.6734113E-1,0E0,4.9807534E-2,0E0,0E0],"parents":[2147483647,0,0,1,1,3,3,4,4,6,6,10,10,12,12],"right_children":[2,4,-1,6,8,-1,10,-1,-1,-1,12,-1,14,-1,-1],"split_conditions":[4E0,3E0,-1.6906756E-1,3E0,5E0,-1.6906415E-1,4E0,4.678869E-1,5.619247E-1,1.7808773E-1,2E0,-1.2270997E-1,4E0,6.3930154E-2,-3.0034347E-3],"split_indices":[1,1,0,1,0,0,2,0,0,0,3,0,0,0,0],"split_type":[0,0,0,0,0,0,0,0,0,0,0,0,0,0,0],"sum_hessian":[1.6191478E3,1.01621765E3,6.029302E2,6.02323E2,4.1389465E2,5.95644E2,6.6789846E0,3.2646066E2,8.743398E1,1.2143608E0,5.464624E0,2.6311152E0,2.8335085E0,1.0119674E0,1.8215413E0],"tree_param":{"num_deleted":"0","num_feature":"6","num_nodes":"15","size_leaf_vector":"1"}},{"base_weights":[1.4789058E-6,1.236175E0,-5.642751E-1,-1.704853E-1,2.5168207E-1,6.83279E-1,-1.252324E-1,3.6426866E-1,-1.9930005E-2],"categories":[],"categories_nodes":[],"categories_segments":[],"categories_sizes":[],"default_left":[0,0,0,0,1,1,0,0,0],"id":2,"left_children":[1,-1,3,-1,5,7,-1,-1,-1],"loss_changes":[3.954395E3,0E0,5.0365906E0,0E0,2.597631E0,2.1691923E0,0E0,0E0,0E0],"parents":[2147483647,0,0,2,2,4,4,5,5],"right_children":[2,-1,4,-1,6,8,-1,-1,-1],"split_conditions":[1.5E0,1.236175E0,1.000001E1,-1.704853E-1,3E0,3E0,-1.252324E-1,3.6426866E-1,-1.9930005E-2],"split_indices":[1,0,1,0,2,0,0,0,0],"split_type":[0,0,0,0,0,0,0,0,0],"sum_hessian":[1.6987072E3,2.0384485E2,1.4948623E3,1.4878551E3,7.007167E0,4.246768E0,2.760399E0,2.123384E0,2.123384E0],"tree_param":{"num_deleted":"0","num_feature":"6","num_nodes":"9","size_leaf_vector":"1"}},{"base_weights":[1.7799476E-6,-5.7049644E-1,1.1839664E0,-1.715374E-1,-2.6130345E-1,6.91643E-2,-1.4337087E-1],"categories":[],"categories_nodes":[],"categories_segments":[],"categories_sizes":[],"default_left":[1,0,0,0,0,0,0],"id":3,"left_children":[1,3,-1,-1,5,-1,-1],"loss_changes":[3.9749692E3,4.6813965E-1,0E0,0E0,9.916828E-1,0E0,0E0],"parents":[2147483647,0,0,1,1,4,4],"right_children":[2,4,-1,-1,6,-1,-1],"split_conditions":[5E0,5E0,1.1839664E0,-1.715374E-1,1E0,6.91643E-2,-1.4337087E-1],"split_indices":[1,1,0,0,4,0,0],"split_type":[0,0,0,0,0,0,0],"sum_hessian":[1.763475E3,1.5414976E3,2.219774E2,1.5342231E3,7.274334E0,2.2043438E0,5.0699906E0],"tree_param":{"num_deleted":"0","num_feature":"6","num_nodes":"7","size_leaf_vector":"1"}},{"base_weights":[1.1888662E-6,-5.579971E-1,9.3983954E-1,-1.686054E-1,4.3685053E-2,1.7050903E0,-1.67933E-1,1.6782372E-1,-2.705384E-1,1.5676426E0,5.279337E-1,-1.2824352E-1,4.562149E-2,5.3092915E-1,1.4129188E0,1.0166649E0,4.5134518E-1,3.9058986E-1,1.4083216E-1],"categories":[],"categories_nodes":[],"categories_segments":[],"categories_sizes":[],"default_left":[1,0,0,0,0,0,0,0,1,0,0,0,0,0,0,1,0,0,0],"id":4,"left_children":[1,3,5,-1,7,9,-1,-1,11,13,-1,-1,-1,-1,15,17,-1,-1,-1],"loss_changes":[8.3067957E2,2.4290466E0,6.7812775E2,0E0,1.3708987E0,1.8005371E-1,0E0,0E0,4.1987112E-1,1.2659302E0,0E0,0E0,0E0,0E0,1.125534E0,2.0147667E0,0E0,0E0,0E0],"parents":[2147483647,0,0,1,1,2,2,4,4,5,5,8,8,9,9,14,14,15,15],"right_children":[2,4,6,-1,8,10,-1,-1,12,14,-1,-1,-1,-1,16,18,-1,-1,-1],"split_conditions":[4E0,4E0,5E0,-1.686054E-1,4E0,1E0,-1.67933E-1,1.6782372E-1,8E0,3E0,5.279337E-1,-1.2824352E-1,4.562149E-2,5.3092915E-1,1E0,5E0,4.5134518E-1,3.9058986E-1,1.4083216E-1],"split_indices":[1,1,1,0,0,4,0,0,2,0,0,0,0,0,3,0,0,0,0],"split_type":[0,0,0,0,0,0,0,0,0,0,0,0,0,0,0,0,0,0,0],"sum_hessian":[1.5819722E3,9.9288525E2,5.8908685E2,9.863596E2,6.525635E0,3.8995612E2,1.9913074E2,2.1752117E0,4.3504233E0,1.19438896E2,2.7051724E2,3.1639442E0,1.1864791E0,4.7261417E1,7.2177475E1,1.5819721E1,5.6357758E1,9.491833E0,6.3278885E0],"tree_param":{"num_deleted":"0","num_feature":"6","num_nodes":"19","size_leaf_vector":"1"}},{"base_weights":[-1.5108452E-5,3.0823678E-1,-1.5273157E-1,-1.52707E-1,1.4776497E0,1.7846721E0,1.326632E0,2.578381E0,1.4153298E0,4.27986E-1,8.7891275E-1,4.7985397E-2,8.960303E-1,1.6258513E0,1.0300646E0,1.0183079E-1,2.963821E-1,3.3659643E-1,6.590505E-1,1.3595535E-1,4.222267E-1],"categories":[],"categories_nodes":[],"categories_segments":[],"categories_sizes":[],"default_left":[0,0,0,0,0,0,0,0,0,0,0,0,0,0,0,0,0,0,0,0,0],"id":5,"left_children":[1,3,-1,-1,5,7,9,11,13,-1,15,-1,-1,17,19,-1,-1,-1,-1,-1,-1],"loss_changes":[6.062266E1,2.3071288E2,0E0,0E0,2.2336884E0,5.0934067E0,1.8983841E0,7.6741943E0,1.5578842E-1,0E0,5.739584E-1,0E0,0E0,1.2365608E0,1.6922894E0,0E0,0E0,0E0,0E0,0E0,0E0],"parents":[2147483647,0,0,1,1,4,4,5,5,6,6,7,7,8,8,10,10,13,13,14,14],"right_children":[2,4,-1,-1,6,8,10,12,14,-1,16,-1,-1,18,20,-1,-1,-1,-1,-1,-1],"split_conditions":[4E0,3E0,-1.5273157E-1,-1.52707E-1,1E0,1E0,5E0,2E0,4E0,4.27986E-1,1E0,4.7985397E-2,8.960303E-1,3E0,5E0,1.0183079E-1,2.963821E-1,3.3659643E-1,6.590505E-1,1.3595535E-1,4.222267E-1],"split_indices":[1,1,0,0,4,3,0,0,0,0,3,0,0,0,0,0,0,0,0,0,0],"split_type":[0,0,0,0,0,0,0,0,0,0,0,0,0,0,0,0,0,0,0,0,0],"sum_hessian":[3.843088E2,2.3961655E2,1.4469228E2,1.4137761E2,9.823894E1,2.8823162E1,6.941578E1,7.253829E0,2.1569332E1,5.495616E1,1.44596195E1,1.2490036E0,6.004825E0,1.1865535E1,9.703797E0,3.122509E0,1.13371105E1,7.8783307E0,3.987204E0,4.7077827E0,4.9960146E0],"tree_param":{"num_deleted":"0","num_feature":"6","num_nodes":"21","size_leaf_vector":"1"}},{"base_weights":[1.1886568E-6,-5.5874956E-1,9.411126E-1,-1.6882065E-1,7.187656E-2,1.7073921E0,-1.681532E-1,-1.1608866E-1,3.512127E-1,1.9105937E0,1.6110266E0,-9.207021E-2,6.3981354E-1,1.6668909E0,6.1362755E-1,5.1390284E-1,1.4536602E0,2.6711555E-2,2.7708155E-1,1.868705E0,4.1161278E-1,3.8037986E-1,4.80444E-1,2.947354E-1,6.1237067E-1],"categories":[],"categories_nodes":[],"categories_segments":[],"categories_sizes":[],"default_left":[1,0,0,0,0,0,0,0,0,0,1,0,0,0,0,0,0,0,0,0,0,0,0,0,0],"id":6,"left_children":[1,3,5,-1,7,9,-1,-1,11,13,15,-1,17,19,-1,-1,21,-1,-1,23,-1,-1,-1,-1,-1],"loss_changes":[8.402751E2,2.56073E0,6.8593616E2,0E0,1.0567187E0,4.6450195E0,0E0,0E0,1.1440952E0,5.826416E-1,1.9056396E0,0E0,5.106149E-1,3.3268738E-1,0E0,0E0,1.1077576E0,0E0,0E0,1.9909439E0,0E0,0E0,0E0,0E0,0E0],"parents":[2147483647,0,0,1,1,2,2,4,4,5,5,8,8,9,9,10,10,12,12,13,13,16,16,19,19],"right_children":[2,4,6,-1,8,10,-1,-1,12,14,16,-1,18,20,-1,-1,22,-1,-1,24,-1,-1,-1,-1,-1],"split_conditions":[4E0,1.6E1,5E0,-1.6882065E-1,4E0,1E0,-1.681532E-1,-1.1608866E-1,1E0,3E0,4E0,-9.207021E-2,2E0,2E0,6.1362755E-1,5.1390284E-1,2E0,2.6711555E-2,2.7708155E-1,1E0,4.1161278E-1,3.8037986E-1,4.80444E-1,2.947354E-1,6.1237067E-1],"split_indices":[1,2,1,0,1,4,0,0,4,0,0,0,3,0,0,0,3,0,0,3,0,0,0,0,0],"split_type":[0,0,0,0,0,0,0,0,0,0,0,0,0,0,0,0,0,0,0,0,0,0,0,0,0],"sum_hessian":[1.5959468E3,1.0016561E3,5.942907E2,9.954718E2,6.1842937E0,3.9340088E2,2.008898E2,2.1944268E0,3.989867E0,1.2049398E2,2.729069E2,1.1969601E0,2.7929068E0,4.767891E1,7.281507E1,1.5959468E2,1.13312225E2,1.3964534E0,1.3964534E0,2.5136162E1,2.2542747E1,5.4461685E1,5.8850536E1,5.186827E0,1.9949335E1],"tree_param":{"num_deleted":"0","num_feature":"6","num_nodes":"25","size_leaf_vector":"1"}},{"base_weights":[1.4530483E-6,1.8001945E0,-5.628475E-1,-1.693202E-1,1.2594333E0,-1.7003022E-1,1.3801405E-1,1.7626235E-1,-1.2497628E-1,6.335563E-2,-1.216428E-1],"categories":[],"categories_nodes":[],"categories_segments":[],"categories_sizes":[],"default_left":[0,0,0,0,0,0,0,0,0,0,0],"id":7,"left_children":[1,3,5,-1,-1,-1,7,-1,9,-1,-1],"loss_changes":[1.6954697E3,2.262275E3,3.5803528E0,0E0,0E0,0E0,1.0066906E0,0E0,6.3300735E-1,0E0,0E0],"parents":[2147483647,0,0,1,1,2,2,6,6,8,8],"right_children":[2,4,6,-1,-1,-1,8,-1,10,-1,-1],"split_conditions":[2E0,1.5E0,1.000001E1,-1.693202E-1,1.2594333E0,-1.7003022E-1,8E0,1.7626235E-1,4E0,6.335563E-2,-1.216428E-1],"split_indices":[1,1,1,0,0,0,2,0,0,0,0],"split_type":[0,0,0,0,0,0,0,0,0,0,0],"sum_hessian":[1.6713203E3,3.975653E2,1.273755E3,2.0055844E2,1.9700688E2,1.2668608E3,6.8941965E0,2.0891504E0,4.805046E0,2.2980654E0,2.5069804E0],"tree_param":{"num_deleted":"0","num_feature":"6","num_nodes":"11","size_leaf_vector":"1"}},{"base_weights":[1.3485667E-6,3.4169847E-1,-1.6965139E-1,-1.6964503E-1,1.6454977E0,5.113879E-1,4.2249432E-1],"categories":[],"categories_nodes":[],"categories_segments":[],"categories_sizes":[],"default_left":[0,0,0,0,1,0,0],"id":8,"left_children":[1,3,-1,-1,5,-1,-1],"loss_changes":[3.2038513E2,1.2233818E3,0E0,0E0,3.550293E0,0E0,0E0],"parents":[2147483647,0,0,1,1,4,4],"right_children":[2,4,-1,-1,6,-1,-1],"split_conditions":[4E0,3E0,-1.6965139E-1,-1.6964503E-1,5E0,5.113879E-1,4.2249432E-1],"split_indices":[1,1,0,0,0,0,0],"split_type":[0,0,0,0,0,0,0],"sum_hessian":[1.6560355E3,1.0325382E3,6.234974E2,6.0921405E2,4.233241E2,3.3389816E2,8.942592E1],"tree_param":{"num_deleted":"0","num_feature":"6","num_nodes":"7","size_leaf_vector":"1"}},{"base_weights":[-1.5846776E-5,-1.5301515E-1,8.5712993E-1,1.5488666E0,-1.5046334E-1,1.1518106E0,1.7036835E0,1.67693E-1,1.2816985E0,1.3429333E0,1.8913485E0,4.317353E-1,7.596317E-1,4.7197106E-1,3.160709E-1,3.3227807E-1,6.207434E-1,3.672995E-1,6.914536E-2],"categories":[],"categories_nodes":[],"categories_segments":[],"categories_sizes":[],"default_left":[1,0,0,0,0,1,1,0,0,0,0,0,0,0,0,0,0,0,0],"id":9,"left_children":[1,-1,3,5,-1,7,9,-1,11,13,15,-1,17,-1,-1,-1,-1,-1,-1],"loss_changes":[1.6389264E2,0E0,1.3221912E2,3.7494202E0,0E0,1.5284157E0,1.8446198E0,0E0,8.085556E-1,4.9224854E-2,3.3035583E0,0E0,1.5568523E0,0E0,0E0,0E0,0E0,0E0,0E0],"parents":[2147483647,0,0,2,2,3,3,5,5,6,6,8,8,9,9,10,10,12,12],"right_children":[2,-1,4,6,-1,8,10,-1,12,14,16,-1,18,-1,-1,-1,-1,-1,-1],"split_conditions":[4E0,-1.5301515E-1,5E0,1E0,-1.5046334E-1,2E0,3E0,1.67693E-1,5E0,2E0,1E0,4.317353E-1,2E0,4.7197106E-1,3.160709E-1,3.3227807E-1,6.207434E-1,3.672995E-1,6.914536E-2],"split_indices":[1,0,1,4,0,0,0,0,0,3,3,0,3,0,0,0,0,0,0],"split_type":[0,0,0,0,0,0,0,0,0,0,0,0,0,0,0,0,0,0,0],"sum_hessian":[3.7289108E2,2.3403575E2,1.3885532E2,9.191765E1,4.6937664E1,2.8153276E1,6.3764374E1,6.0128684E0,2.2140408E1,2.4610811E1,3.915356E1,1.5661425E1,6.4789824E0,1.1233343E1,1.3377467E1,8.576494E0,3.0577068E1,2.7500715E0,3.7289107E0],"tree_param":{"num_deleted":"0","num_feature":"6","num_nodes":"19","size_leaf_vector":"1"}},{"base_weights":[-6.101053E-4,6.329551E-1,-1.3707817E-1],"categories":[],"categories_nodes":[],"categories_segments":[],"categories_sizes":[],"default_left":[1,0,0],"id":10,"left_children":[1,-1,-1],"loss_changes":[1.34901495E1,0E0,0E0],"parents":[2147483647,0,0],"right_children":[2,-1,-1],"split_conditions":[1.5E0,6.329551E-1,-1.3707817E-1],"split_indices":[1,0,0],"split_type":[0,0,0],"sum_hessian":[1.2006846E1,1.4903498E0,1.0516497E1],"tree_param":{"num_deleted":"0","num_feature":"6","num_nodes":"3","size_leaf_vector":"1"}},{"base_weights":[-1.8557884E-2,6.05885E-1,-5.549358E-1,-1.6514726E-1,4.178956E-1,-1.6708665E-1,-2.579127E-1,-3.3587086E-1,1.7901205E-2,7.769738E-3,-1.365941E-1],"categories":[],"categories_nodes":[],"categories_segments":[],"categories_sizes":[],"default_left":[0,0,0,0,0,0,1,0,0,0,0],"id":11,"left_children":[1,3,5,-1,-1,-1,7,9,-1,-1,-1],"loss_changes":[5.833986E2,7.333286E2,4.1836548E-1,0E0,0E0,0E0,2.228176E-1,3.0246603E-1,0E0,0E0,0E0],"parents":[2147483647,0,0,1,1,2,2,6,6,7,7],"right_children":[2,4,6,-1,-1,-1,8,10,-1,-1,-1],"split_conditions":[3E0,2E0,1.000001E1,-1.6514726E-1,4.178956E-1,-1.6708665E-1,4E0,4.5E0,1.7901205E-2,7.769738E-3,-1.365941E-1],"split_indices":[1,1,1,0,0,0,0,2,0,0,0],"split_type":[0,0,0,0,0,0,0,0,0,0,0],"sum_hessian":[1.7398102E3,8.038504E2,9.359598E2,3.25678E2,4.7817236E2,9.2876953E2,7.1902523E0,5.726876E0,1.4633769E0,1.615871E0,4.111005E0],"tree_param":{"num_deleted":"0","num_feature":"6","num_nodes":"11","size_leaf_vector":"1"}},{"base_weights":[2.119944E-2,2.8302473E-1,-1.6444337E-1,-5.3599143E-1,9.080664E-1,-1.6331226E-1,1.5914932E-2,8.2747275E-1,9.3944013E-1,-2.5210142E-1,3.6296365E-1,7.5110173E-1,2.653591E-1,2.6450792E-1,1.0171336E0,-1.1794164E-1,5.143258E-3,1.965789E-1,1.5468035E-3,8.397955E-1,6.2862384E-1,3.4912157E-1,2.9027253E-1,2.7745324E-1,1.9787939E-1,1.6844995E-1,2.4302436E-1],"categories":[],"categories_nodes":[],"categories_segments":[],"categories_sizes":[],"default_left":[1,1,0,0,0,0,1,0,1,0,0,0,0,0,0,0,0,0,0,0,0,0,0,0,0,0,0],"id":12,"left_children":[1,3,-1,5,7,-1,9,11,13,15,17,19,-1,-1,21,-1,-1,-1,-1,23,25,-1,-1,-1,-1,-1,-1],"loss_changes":[2.302132E2,5.419995E2,0E0,2.129837E0,7.4057007E-1,0E0,8.199239E-1,1.051712E-1,1.008728E0,1.9694552E-1,3.9639056E-1,3.6447525E-1,0E0,0E0,1.4237976E-1,0E0,0E0,0E0,0E0,7.455635E-2,1.3834E-2,0E0,0E0,0E0,0E0,0E0,0E0],"parents":[2147483647,0,0,1,1,3,3,4,4,6,6,7,7,8,8,9,9,10,10,11,11,14,14,19,19,20,20],"right_children":[2,4,-1,6,8,-1,10,12,14,16,18,20,-1,-1,22,-1,-1,-1,-1,24,26,-1,-1,-1,-1,-1,-1],"split_conditions":[4E0,3E0,-1.6444337E-1,3E0,1E0,-1.6331226E-1,3E0,2E0,4E0,2E0,1E0,1E0,2.653591E-1,2.6450792E-1,1E0,-1.1794164E-1,5.143258E-3,1.965789E-1,1.5468035E-3,4E0,5E0,3.4912157E-1,2.9027253E-1,2.7745324E-1,1.9787939E-1,1.6844995E-1,2.4302436E-1],"split_indices":[1,1,0,1,4,0,2,3,0,3,4,3,0,0,3,0,0,0,0,0,0,0,0,0,0,0,0],"split_type":[0,0,0,0,0,0,0,0,0,0,0,0,0,0,0,0,0,0,0,0,0,0,0,0,0,0,0],"sum_hessian":[1.5423027E3,1.056809E3,4.8549377E2,4.5748767E2,5.993212E2,4.5065646E2,6.831236E0,1.7560287E2,4.2371835E2,4.008875E0,2.822361E0,8.114933E1,9.445355E1,2.5014316E2,1.735752E2,2.3288288E0,1.680046E0,1.0958302E0,1.7265308E0,4.3669136E1,3.7480194E1,3.817198E1,1.3540321E2,2.685967E1,1.6809464E1,3.0348272E1,7.1319222E0],"tree_param":{"num_deleted":"0","num_feature":"6","num_nodes":"27","size_leaf_vector":"1"}},{"base_weights":[-2.3667328E-2,4.1729742E-1,-5.464974E-1,-1.6539823E-1,1.8622582E-1,5.168363E-1,-1.22634605E-1,2.2007234E-2,3.292343E-1,1.0132619E-1,-1.03875466E-1],"categories":[],"categories_nodes":[],"categories_segments":[],"categories_sizes":[],"default_left":[0,0,0,0,1,0,0,0,0,0,0],"id":13,"left_children":[1,-1,3,-1,5,7,-1,9,-1,-1,-1],"loss_changes":[1.2131998E3,0E0,4.341156E0,0E0,1.9011402E0,1.6892469E0,0E0,6.099806E-1,0E0,0E0,0E0],"parents":[2147483647,0,0,2,2,4,4,5,5,7,7],"right_children":[2,-1,4,-1,6,8,-1,10,-1,-1,-1],"split_conditions":[1.5E0,4.1729742E-1,1.000001E1,-1.6539823E-1,3E0,5E0,-1.22634605E-1,2E0,3.292343E-1,1.0132619E-1,-1.03875466E-1],"split_indices":[1,0,1,0,2,0,0,3,0,0,0],"split_type":[0,0,0,0,0,0,0,0,0,0,0],"sum_hessian":[1.6382601E3,4.4163535E2,1.1966249E3,1.1890344E3,7.590396E0,4.963727E0,2.6266687E0,3.240175E0,1.7235522E0,1.7890612E0,1.4511137E0],"tree_param":{"num_deleted":"0","num_feature":"6","num_nodes":"11","size_leaf_vector":"1"}},{"base_weights":[-2.080603E-2,-5.5227184E-1,4.1781193E-1,-1.6614065E-1,-2.484113E-1,5.3045414E-2,-1.388486E-1],"categories":[],"categories_nodes":[],"categories_segments":[],"categories_sizes":[],"default_left":[1,0,0,0,0,0,0],"id":14,"left_children":[1,3,-1,-1,5,-1,-1],"loss_changes":[1.275714E3,4.362793E-1,0E0,0E0,8.110099E-1,0E0,0E0],"parents":[2147483647,0,0,1,1,4,4],"right_children":[2,4,-1,-1,6,-1,-1],"split_conditions":[5E0,5E0,4.1781193E-1,-1.6614065E-1,1E0,5.3045414E-2,-1.388486E-1],"split_indices":[1,1,0,0,4,0,0],"split_type":[0,0,0,0,0,0,0],"sum_hessian":[1.6961353E3,1.2331086E3,4.6302658E2,1.2261112E3,6.997378E0,2.4043877E0,4.59299E0],"tree_param":{"num_deleted":"0","num_feature":"6","num_nodes":"7","size_leaf_vector":"1"}},{"base_weights":[2.0298606E-2,-5.4090613E-1,6.2461597E-1,-1.6375142E-1,2.379056E-2,2.7948177E-1,-1.6228303E-1,1.3582872E-1,-2.6465282E-1,-1.246719E-1,3.1652983E-2],"categories":[],"categories_nodes":[],"categories_segments":[],"categories_sizes":[],"default_left":[1,0,0,0,0,0,0,0,1,0,0],"id":15,"left_children":[1,3,5,-1,7,-1,-1,-1,9,-1,-1],"loss_changes":[5.121058E2,2.193512E0,2.6065356E2,0E0,1.0771676E0,0E0,0E0,0E0,3.3755344E-1,0E0,0E0],"parents":[2147483647,0,0,1,1,2,2,4,4,8,8],"right_children":[2,4,6,-1,8,-1,-1,-1,10,-1,-1],"split_conditions":[4E0,4E0,5E0,-1.6375142E-1,4E0,2.7948177E-1,-1.6228303E-1,1.3582872E-1,8E0,-1.246719E-1,3.1652983E-2],"split_indices":[1,1,1,0,0,0,0,0,2,0,0],"split_type":[0,0,0,0,0,0,0,0,0,0,0],"sum_hessian":[1.5079911E3,7.819402E2,7.2605084E2,7.752031E2,6.737099E0,5.748462E2,1.5120465E2,2.4796696E0,4.2574296E0,2.9372134E0,1.3202161E0],"tree_param":{"num_deleted":"0","num_feature":"6","num_nodes":"11","size_leaf_vector":"1"}},{"base_weights":[2.7417012E-2,2.7751353E-1,-1.5170318E-1,-1.5136585E-1,8.5772514E-1,2.9325253E-1,2.3807667E-1],"categories":[],"categories_nodes":[],"categories_segments":[],"categories_sizes":[],"default_left":[0,0,0,0,0,0,0],"id":16,"left_children":[1,3,-1,-1,5,-1,-1],"loss_changes":[4.8825417E1,1.1351059E2,0E0,0E0,3.2617188E-1,0E0,0E0],"parents":[2147483647,0,0,1,1,4,4],"right_children":[2,4,-1,-1,6,-1,-1],"split_conditions":[4E0,3E0,-1.5170318E-1,-1.5136585E-1,1E0,2.9325253E-1,2.3807667E-1],"split_indices":[1,1,0,0,4,0,0],"split_type":[0,0,0,0,0,0,0],"sum_hessian":[3.6416092E2,2.4819965E2,1.15961266E2,1.05766945E2,1.424327E2,4.470286E1,9.7729836E1],"tree_param":{"num_deleted":"0","num_feature":"6","num_nodes":"7","size_leaf_vector":"1"}},{"base_weights":[2.0741245E-2,-5.4146624E-1,6.2741154E-1,-1.639123E-1,7.171585E-2,9.3610597E-1,-1.624356E-1,-1.0560352E-1,2.7821162E-1,9.951876E-1,2.717378E-1,-8.8585034E-2,4.9917907E-1,2.8312442E-1,1.129553E0,1.853109E-2,2.137567E-1,4.2021248E-1,3.0140206E-1],"categories":[],"categories_nodes":[],"categories_segments":[],"categories_sizes":[],"default_left":[1,0,0,0,0,0,0,0,0,0,0,0,0,0,0,0,0,0,0],"id":17,"left_children":[1,3,5,-1,7,9,-1,-1,11,13,-1,-1,15,-1,17,-1,-1,-1,-1],"loss_changes":[5.190933E2,2.4165192E0,2.646302E2,0E0,7.241222E-1,1.3632202E-1,0E0,0E0,8.2793856E-1,2.2200012E-1,0E0,0E0,3.5242927E-1,0E0,1.6771317E-1,0E0,0E0,0E0,0E0],"parents":[2147483647,0,0,1,1,2,2,4,4,5,5,8,8,9,9,12,12,14,14],"right_children":[2,4,6,-1,8,10,-1,-1,12,14,-1,-1,16,-1,18,-1,-1,-1,-1],"split_conditions":[4E0,1.6E1,5E0,-1.639123E-1,4E0,1E0,-1.624356E-1,-1.0560352E-1,1E0,5E0,2.717378E-1,-8.8585034E-2,2E0,2.8312442E-1,1E0,1.853109E-2,2.137567E-1,4.2021248E-1,3.0140206E-1],"split_indices":[1,2,1,0,1,4,0,0,4,0,0,0,3,0,3,0,0,0,0],"split_type":[0,0,0,0,0,0,0,0,0,0,0,0,0,0,0,0,0,0,0],"sum_hessian":[1.5199388E3,7.889336E2,7.3100525E2,7.82777E2,6.156606E0,5.7843964E2,1.5256558E2,1.7863467E0,4.37026E0,1.8535204E2,3.9308762E2,1.1219776E0,3.2482822E0,1.3984027E2,4.5511757E1,1.4876826E0,1.7605996E0,1.1129462E1,3.4382294E1],"tree_param":{"num_deleted":"0","num_feature":"6","num_nodes":"19","size_leaf_vector":"1"}},{"base_weights":[-2.5347395E-2,8.8859904E-1,-5.4605436E-1,-1.6309364E-1,4.1645753E-1,-1.652247E-1,9.914253E-2,4.3955812E-1,-1.23654656E-1,1.8227017E-2,2.043496E-1,5.597107E-2,-1.1921518E-1],"categories":[],"categories_nodes":[],"categories_segments":[],"categories_sizes":[],"default_left":[0,0,0,0,0,0,0,0,0,0,0,0,0],"id":18,"left_children":[1,3,5,-1,-1,-1,7,9,11,-1,-1,-1,-1],"loss_changes":[7.69154E2,4.2050067E2,3.1731262E0,0E0,0E0,0E0,6.827055E-1,2.7865404E-1,5.656388E-1,0E0,0E0,0E0,0E0],"parents":[2147483647,0,0,1,1,2,2,6,6,7,7,8,8],"right_children":[2,4,6,-1,-1,-1,8,10,12,-1,-1,-1,-1],"split_conditions":[2E0,1.5E0,1.000001E1,-1.6309364E-1,4.1645753E-1,-1.652247E-1,8E0,4E0,4E0,1.8227017E-2,2.043496E-1,5.597107E-2,-1.1921518E-1],"split_indices":[1,1,1,0,0,0,2,2,0,0,0,0,0],"split_type":[0,0,0,0,0,0,0,0,0,0,0,0,0],"sum_hessian":[1.6141954E3,5.856153E2,1.0285801E3,1.5142325E2,4.3419205E2,1.0212953E3,7.284837E0,2.4968898E0,4.787947E0,1.4597324E0,1.0371574E0,2.393613E0,2.3943338E0],"tree_param":{"num_deleted":"0","num_feature":"6","num_nodes":"13","size_leaf_vector":"1"}},{"base_weights":[2.0731589E-2,2.8774756E-1,-1.648946E-1,-1.6370344E-1,9.1372633E-1,8.0706686E-1,9.4458437E-1,2.6325235E-1,2.0276879E-1,1.0184426E0,2.7268177E-1,1.0679896E0,2.3390155E-1,3.6581045E-1,2.9906878E-1],"categories":[],"categories_nodes":[],"categories_segments":[],"categories_sizes":[],"default_left":[0,0,0,0,0,1,0,0,0,0,0,0,0,0,0],"id":19,"left_children":[1,3,-1,-1,5,7,9,-1,-1,11,-1,13,-1,-1,-1],"loss_changes":[2.4059662E2,5.618402E2,0E0,0E0,1.2612915E0,7.451172E-1,3.1427002E-1,0E0,0E0,8.8290405E-1,0E0,4.7821045E-2,0E0,0E0,0E0],"parents":[2147483647,0,0,1,1,4,4,5,5,6,6,9,9,11,11],"right_children":[2,4,-1,-1,6,8,10,-1,-1,12,-1,14,-1,-1,-1],"split_conditions":[4E0,3E0,-1.648946E-1,-1.6370344E-1,1E0,4E0,2E0,2.6325235E-1,2.0276879E-1,5E0,2.7268177E-1,1E0,2.3390155E-1,3.6581045E-1,2.9906878E-1],"split_indices":[1,1,0,0,3,0,3,0,0,0,0,4,0,0,0],"split_type":[0,0,0,0,0,0,0,0,0,0,0,0,0,0,0],"sum_hessian":[1.5777096E3,1.0749714E3,5.0273816E2,4.6113986E2,6.1383154E2,1.438332E2,4.6999835E2,8.987768E1,5.395554E1,1.440173E2,3.2598105E2,1.1639209E2,2.7625223E1,3.2033085E1,8.4359E1],"tree_param":{"num_deleted":"0","num_feature":"6","num_nodes":"15","size_leaf_vector":"1"}},{"base_weights":[2.5770495E-2,-1.5200797E-1,5.9173095E-1,2.624057E-1,-1.485222E-1],"categories":[],"categories_nodes":[],"categories_segments":[],"categories_sizes":[],"default_left":[1,0,0,0,0],"id":20,"left_children":[1,-1,3,-1,-1],"loss_changes":[1.07395836E2,0E0,5.3551678E1,0E0,0E0],"parents":[2147483647,0,0,2,2],"right_children":[2,-1,4,-1,-1],"split_conditions":[4E0,-1.5200797E-1,5E0,2.624057E-1,-1.485222E-1],"split_indices":[1,0,1,0,0],"split_type":[0,0,0,0,0],"sum_hessian":[3.5438345E2,1.8264922E2,1.7173425E2,1.3641354E2,3.5320717E1],"tree_param":{"num_deleted":"0","num_feature":"6","num_nodes":"5","size_leaf_vector":"1"}},{"base_weights":[4.728936E-2,-1.3598861E-1,7.197482E-1],"categories":[],"categories_nodes":[],"categories_segments":[],"categories_sizes":[],"default_left":[0,0,0],"id":21,"left_children":[1,-1,-1],"loss_changes":[1.5061409E1,0E0,0E0],"parents":[2147483647,0,0],"right_children":[2,-1,-1],"split_conditions":[5E0,-1.3598861E-1,7.197482E-1],"split_indices":[1,0,0],"split_type":[0,0,0],"sum_hessian":[1.0869322E1,9.62743E0,1.2418915E0],"tree_param":{"num_deleted":"0","num_feature":"6","num_nodes":"3","size_leaf_vector":"1"}},{"base_weights":[-2.6819477E-2,4.8745048E-1,-5.4275364E-1,-1.6129015E-1,2.9966304E-1,-1.6353096E-1,-2.4519724E-1,-3.2113189E-1,1.406078E-2,3.5808503E-3,-1.3225153E-1],"categories":[],"categories_nodes":[],"categories_segments":[],"categories_sizes":[],"default_left":[0,0,0,0,0,0,1,0,0,0,0],"id":22,"left_children":[1,3,5,-1,-1,-1,7,9,-1,-1,-1],"loss_changes":[4.1344775E2,4.0966968E2,4.1015625E-1,0E0,0E0,0E0,1.9051048E-1,2.606845E-1,0E0,0E0,0E0],"parents":[2147483647,0,0,1,1,2,2,6,6,7,7],"right_children":[2,4,6,-1,-1,-1,8,10,-1,-1,-1],"split_conditions":[3E0,2E0,1.000001E1,-1.6129015E-1,2.9966304E-1,-1.6353096E-1,4E0,4.5E0,1.406078E-2,3.5808503E-3,-1.3225153E-1],"split_indices":[1,1,1,0,0,0,0,2,0,0,0],"split_type":[0,0,0,0,0,0,0,0,0,0,0],"sum_hessian":[1.5562461E3,7.7940765E2,7.7683844E2,2.5940814E2,5.199995E2,7.69927E2,6.9114246E0,5.406316E0,1.5051091E0,1.6673679E0,3.7389476E0],"tree_param":{"num_deleted":"0","num_feature":"6","num_nodes":"11","size_leaf_vector":"1"}},{"base_weights":[2.6793962E-2,2.3571661E-1,-1.6134979E-1,-5.231727E-1,6.234482E-1,-1.6000977E-1,2.7600774E-3,1.7483352E-1,6.3871914E-1,1.4119306E-1,-1.7366761E-1,6.0606647E-1,2.0453313E-1,-1.1686745E-1,4.0303946E-2,6.361557E-1,5.408121E-1,-2.2965249E-2,6.163282E-2,1.6247727E-1,2.1391143E-1,2.1490169E-1,1.4261672E-1],"categories":[],"categories_nodes":[],"categories_segments":[],"categories_sizes":[],"default_left":[1,1,0,0,0,0,0,0,1,0,0,0,0,0,1,0,0,0,0,0,0,0,0],"id":23,"left_children":[1,3,-1,5,7,-1,9,-1,11,-1,13,15,-1,-1,17,19,21,-1,-1,-1,-1,-1,-1],"loss_changes":[1.7492049E2,3.18776E2,0E0,1.9663162E0,7.2906494E-2,0E0,7.3908055E-1,0E0,3.0477905E-1,0E0,3.1657267E-1,2.4388123E-1,0E0,0E0,9.633839E-2,1.0625305E0,8.2123375E-1,0E0,0E0,0E0,0E0,0E0,0E0],"parents":[2147483647,0,0,1,1,3,3,4,4,6,6,8,8,10,10,11,11,14,14,15,15,16,16],"right_children":[2,4,-1,6,8,-1,10,-1,12,-1,14,16,-1,-1,18,20,22,-1,-1,-1,-1,-1,-1],"split_conditions":[4E0,3E0,-1.6134979E-1,3E0,1E0,-1.6000977E-1,4E0,1.7483352E-1,4E0,1.4119306E-1,2E0,3E0,2.0453313E-1,-1.1686745E-1,9E0,2E0,1E0,-2.2965249E-2,6.163282E-2,1.6247727E-1,2.1391143E-1,2.1490169E-1,1.4261672E-1],"split_indices":[1,1,0,1,4,0,2,0,0,0,3,0,0,0,2,3,3,0,0,0,0,0,0],"split_type":[0,0,0,0,0,0,0,0,0,0,0,0,0,0,0,0,0,0,0,0,0,0,0],"sum_hessian":[1.4807637E3,1.0812595E3,3.995042E2,3.655114E2,7.157481E2,3.585482E2,6.9632244E0,2.0607896E2,5.0966916E2,1.4500599E0,5.5131645E0,2.9843112E2,2.11238E2,2.3358045E0,3.17736E0,1.9826215E2,1.00169E2,2.1748488E0,1.0025113E0,9.251437E1,1.0574777E2,2.4496548E1,7.567245E1],"tree_param":{"num_deleted":"0","num_feature":"6","num_nodes":"23","size_leaf_vector":"1"}},{"base_weights":[-3.136175E-2,2.994574E-1,-5.347072E-1,-1.6211382E-1,1.3906135E-1,3.315154E-1,-1.3154368E-1,1.2680258E-1,-1.2771113E-1,-1.0184253E-1,4.1478232E-1,1.7374513E-1,2.5190035E-2],"categories":[],"categories_nodes":[],"categories_segments":[],"categories_sizes":[],"default_left":[0,0,0,0,0,0,0,1,0,0,0,0,0],"id":24,"left_children":[1,-1,3,-1,5,-1,7,9,-1,-1,11,-1,-1],"loss_changes":[7.590974E2,0E0,3.8349E0,0E0,2.500135E0,0E0,6.5666693E-1,8.1123745E-1,0E0,0E0,1.4367586E-1,0E0,0E0],"parents":[2147483647,0,0,2,2,4,4,6,6,7,7,10,10],"right_children":[2,-1,4,-1,6,-1,8,10,-1,-1,12,-1,-1],"split_conditions":[1.5E0,2.994574E-1,1.000001E1,-1.6211382E-1,3E0,3.315154E-1,2E0,2E0,-1.2771113E-1,-1.0184253E-1,1E0,1.7374513E-1,2.5190035E-2],"split_indices":[1,0,1,0,2,0,3,0,0,0,4,0,0],"split_type":[0,0,0,0,0,0,0,0,0,0,0,0,0],"sum_hessian":[1.4627845E3,4.7999988E2,9.827847E2,9.747765E2,8.008251E0,1.077658E0,6.9305925E0,3.9928253E0,2.9377675E0,1.4562104E0,2.536615E0,1.1931269E0,1.3434881E0],"tree_param":{"num_deleted":"0","num_feature":"6","num_nodes":"13","size_leaf_vector":"1"}},{"base_weights":[-2.8718308E-2,-5.4048353E-1,2.998063E-1,-1.626845E-1,-2.3613597E-1,1.4031433E-1,-1.3468178E-1,5.581276E-2,1.4078075E-2],"categories":[],"categories_nodes":[],"categories_segments":[],"categories_sizes":[],"default_left":[1,0,0,0,0,0,0,0,0],"id":25,"left_children":[1,3,-1,-1,5,7,-1,-1,-1],"loss_changes":[7.9863934E2,4.265442E-1,0E0,0E0,6.817191E-1,6.4345077E-3,0E0,0E0,0E0],"parents":[2147483647,0,0,1,1,4,4,5,5],"right_children":[2,4,-1,-1,6,8,-1,-1,-1],"split_conditions":[5E0,5E0,2.998063E-1,-1.626845E-1,1E0,1.5E1,-1.3468178E-1,5.581276E-2,1.4078075E-2],"split_indices":[1,1,0,0,4,2,0,0,0],"split_type":[0,0,0,0,0,0,0,0,0],"sum_hessian":[1.5159188E3,1.01241974E3,5.0349908E2,1.0056962E3,6.723476E0,2.551137E0,4.172339E0,1.0465322E0,1.5046048E0],"tree_param":{"num_deleted":"0","num_feature":"6","num_nodes":"9","size_leaf_vector":"1"}},{"base_weights":[2.483948E-2,-1.607259E-1,4.5661733E-1,1.8997182E-1,-5.0075686E-1,-1.5890162E-1,5.931291E-3,3.5667259E-1,-2.557714E-1,1.2728764E-1,3.6264516E-2,-1.206207E-1,2.1974226E-2],"categories":[],"categories_nodes":[],"categories_segments":[],"categories_sizes":[],"default_left":[0,0,0,0,0,0,0,0,1,0,0,0,0],"id":26,"left_children":[1,-1,3,-1,5,-1,7,9,11,-1,-1,-1,-1],"loss_changes":[3.5118875E2,0E0,1.3890224E2,0E0,1.881527E0,0E0,8.1732523E-1,9.263545E-3,2.7554443E-1,0E0,0E0,0E0,0E0],"parents":[2147483647,0,0,2,2,4,4,6,6,7,7,8,8],"right_children":[2,-1,4,-1,6,-1,8,10,12,-1,-1,-1,-1],"split_conditions":[4E0,-1.607259E-1,5E0,1.8997182E-1,1.000001E1,-1.5890162E-1,4E0,2E0,8E0,1.2728764E-1,3.6264516E-2,-1.206207E-1,2.1974226E-2],"split_indices":[1,0,1,0,1,0,0,3,2,0,0,0,0],"split_type":[0,0,0,0,0,0,0,0,0,0,0,0,0],"sum_hessian":[1.4488741E3,6.3029675E2,8.1857745E2,6.913683E2,1.27209145E2,1.20298706E2,6.9104376E0,2.7978234E0,4.112614E0,1.5530121E0,1.2448114E0,2.6931057E0,1.4195086E0],"tree_param":{"num_deleted":"0","num_feature":"6","num_nodes":"13","size_leaf_vector":"1"}},{"base_weights":[3.7734058E-2,2.3685029E-1,-1.5088159E-1,-1.5040463E-1,5.882702E-1,4.9059948E-1,1.8169914E-1,6.946293E-1,4.0796897E-1,1.7269893E-2,2.5627655E-1,1.8379343E-1,9.1289066E-2],"categories":[],"categories_nodes":[],"categories_segments":[],"categories_sizes":[],"default_left":[0,0,0,0,1,0,0,0,0,0,0,0,0],"id":27,"left_children":[1,3,-1,-1,5,7,-1,9,11,-1,-1,-1,-1],"loss_changes":[3.850986E1,6.808142E1,0E0,0E0,4.386902E-3,2.576809E-1,0E0,7.4685264E-1,3.496909E-1,0E0,0E0,0E0,0E0],"parents":[2147483647,0,0,1,1,4,4,5,5,7,7,8,8],"right_children":[2,4,-1,-1,6,8,-1,10,12,-1,-1,-1,-1],"split_conditions":[4E0,3E0,-1.5088159E-1,-1.5040463E-1,2E0,1E0,1.8169914E-1,1E0,1E0,1.7269893E-2,2.5627655E-1,1.8379343E-1,9.1289066E-2],"split_indices":[1,1,0,0,0,3,0,4,4,0,0,0,0],"split_type":[0,0,0,0,0,0,0,0,0,0,0,0,0],"sum_hessian":[3.5560327E2,2.6030237E2,9.530091E1,8.381416E1,1.7648819E2,3.1093552E1,1.4539464E2,6.8278623E0,2.4265688E1,1.6406599E0,5.1872025E0,6.507916E0,1.7757772E1],"tree_param":{"num_deleted":"0","num_feature":"6","num_nodes":"13","size_leaf_vector":"1"}},{"base_weights":[2.5639858E-2,-1.6084607E-1,4.6011546E-1,6.380185E-1,-5.0145113E-1,6.7629015E-1,6.1850137E-1,-1.590189E-1,1.2842022E-2,1.9308858E-1,7.6179063E-1,6.4798677E-1,5.7170904E-1,-1.11175366E-1,2.1797818E-1,2.766526E-1,6.8651116E-1,7.2301936E-1,5.8244526E-1,1.5069987E-1,6.2709653E-1,-8.5044354E-2,3.919854E-1,1.4957614E-1,2.2021747E-1,1.7269371E-1,2.3727001E-1,2.1430989E-1,1.535248E-1,1.5020826E-1,2.1645878E-1,1.2959515E-2,1.6582781E-1],"categories":[],"categories_nodes":[],"categories_segments":[],"categories_sizes":[],"default_left":[0,0,0,0,0,0,1,0,0,0,0,0,0,0,0,0,0,0,1,0,0,0,0,0,0,0,0,0,0,0,0,0,0],"id":28,"left_children":[1,-1,3,5,7,9,11,-1,13,-1,15,17,19,-1,21,-1,23,25,27,-1,29,-1,31,-1,-1,-1,-1,-1,-1,-1,-1,-1,-1],"loss_changes":[3.5658588E2,0E0,1.4123842E2,1.0131836E-1,1.9075737E0,1.3584137E-1,2.8128052E-1,0E0,6.930236E-1,0E0,4.9453735E-2,9.6704865E-1,4.1927338E-1,0E0,6.0854065E-1,0E0,1.27391815E-2,8.1988525E-1,1.0875854E0,0E0,8.590393E-1,0E0,2.3697257E-1,0E0,0E0,0E0,0E0,0E0,0E0,0E0,0E0,0E0,0E0],"parents":[2147483647,0,0,2,2,3,3,4,4,5,5,6,6,8,8,10,10,11,11,12,12,14,14,16,16,17,17,18,18,20,20,22,22],"right_children":[2,-1,4,6,8,10,12,-1,14,-1,16,18,20,-1,22,-1,24,26,28,-1,30,-1,32,-1,-1,-1,-1,-1,-1,-1,-1,-1,-1],"split_conditions":[4E0,-1.6084607E-1,5E0,1E0,1.000001E1,5E0,4E0,-1.590189E-1,1.5E1,1.9308858E-1,1E0,2E0,2E0,-1.11175366E-1,1E0,2.766526E-1,2E0,2E0,2E0,1.5069987E-1,5E0,-8.5044354E-2,2E0,1.4957614E-1,2.2021747E-1,1.7269371E-1,2.3727001E-1,2.1430989E-1,1.535248E-1,1.5020826E-1,2.1645878E-1,1.2959515E-2,1.6582781E-1],"split_indices":[1,0,1,4,1,0,0,0,2,0,3,3,3,0,4,0,3,0,0,0,0,0,3,0,0,0,0,0,0,0,0,0,0],"split_type":[0,0,0,0,0,0,0,0,0,0,0,0,0,0,0,0,0,0,0,0,0,0,0,0,0,0,0,0,0,0,0,0,0],"sum_hessian":[1.4588948E3,6.361259E2,8.2276886E2,6.9459564E2,1.2817323E2,2.2322208E2,4.7137354E2,1.2138928E2,6.783955E0,1.6769104E2,5.5531036E1,2.812808E2,1.9009274E2,2.0833566E0,4.7005987E0,1.4144925E1,4.1386112E1,1.2646773E2,1.5481308E2,8.885983E1,1.0123291E2,1.0488514E0,3.6517472E0,1.0676144E1,3.0709969E1,4.2871304E1,8.359643E1,5.0839725E1,1.0397334E2,4.5983765E1,5.524915E1,1.5524704E0,2.0992768E0],"tree_param":{"num_deleted":"0","num_feature":"6","num_nodes":"33","size_leaf_vector":"1"}},{"base_weights":[-3.3037107E-2,6.776585E-1,-1.6202669E-1,-4.9582767E-1,2.990582E-1,-1.5950613E-1,7.342956E-2,2.8653878E-1,-2.066221E-1,-1.3892831E-1,2.2863878E-1,5.0068654E-2,-1.1800519E-1,2.3900758E-2,-9.368782E-2],"categories":[],"categories_nodes":[],"categories_segments":[],"categories_sizes":[],"default_left":[1,1,0,0,0,0,0,1,0,1,0,0,0,0,0],"id":29,"left_children":[1,3,-1,5,-1,-1,7,9,11,13,-1,-1,-1,-1,-1],"loss_changes":[5.1977216E2,2.254675E2,0E0,2.674446E0,0E0,0E0,5.682492E-1,1.1707447E0,3.6324224E-1,1.6219819E-1,0E0,0E0,0E0,0E0,0E0],"parents":[2147483647,0,0,1,1,3,3,6,6,7,7,8,8,9,9],"right_children":[2,4,-1,6,-1,-1,8,10,12,14,-1,-1,-1,-1,-1],"split_conditions":[2E0,1.5E0,-1.6202669E-1,1.5E0,2.990582E-1,-1.5950613E-1,2E0,3E0,4E0,3E0,2.2863878E-1,5.0068654E-2,-1.1800519E-1,2.3900758E-2,-9.368782E-2],"split_indices":[1,1,0,1,0,0,3,2,0,0,0,0,0,0,0],"split_type":[0,0,0,0,0,0,0,0,0,0,0,0,0,0,0],"sum_hessian":[1.4403555E3,5.996024E2,8.4075305E2,1.2810294E2,4.7149948E2,1.205736E2,7.52933E0,4.262532E0,3.2667975E0,2.6234527E0,1.6390796E0,1.1242154E0,2.1425822E0,1.3993925E0,1.2240602E0],"tree_param":{"num_deleted":"0","num_feature":"6","num_nodes":"15","size_leaf_vector":"1"}},{"base_weights":[2.5723634E-2,2.3872602E-1,-1.617172E-1,-1.6030225E-1,6.261665E-1,5.6711113E-1,6.4274836E-1,1.9174819E-1,1.524159E-1,6.848379E-1,6.2211883E-1,2.4470167E-1,1.9460936E-1,1.7320828E-1,1.9467854E-1],"categories":[],"categories_nodes":[],"categories_segments":[],"categories_sizes":[],"default_left":[0,0,0,0,0,1,0,0,0,0,0,0,0,0,0],"id":30,"left_children":[1,3,-1,-1,5,7,9,-1,-1,11,13,-1,-1,-1,-1],"loss_changes":[1.8233922E2,3.2996402E2,0E0,0E0,3.5385132E-1,3.957405E-1,6.47583E-2,0E0,0E0,3.0308533E-1,9.359741E-2,0E0,0E0,0E0,0E0],"parents":[2147483647,0,0,1,1,4,4,5,5,6,6,9,9,10,10],"right_children":[2,4,-1,-1,6,8,10,-1,-1,12,14,-1,-1,-1,-1],"split_conditions":[4E0,3E0,-1.617172E-1,-1.6030225E-1,1E0,3E0,2E0,1.9174819E-1,1.524159E-1,2E0,3E0,2.4470167E-1,1.9460936E-1,1.7320828E-1,1.9467854E-1],"split_indices":[1,1,0,0,3,0,3,0,0,0,0,0,0,0,0],"split_type":[0,0,0,0,0,0,0,0,0,0,0,0,0,0,0],"sum_hessian":[1.5136384E3,1.0995353E3,4.1410315E2,3.6695813E2,7.3257715E2,1.6831902E2,5.642581E2,7.139556E1,9.6923454E1,1.7500533E2,3.892528E2,3.320971E1,1.4179562E2,1.5425833E2,2.3499449E2],"tree_param":{"num_deleted":"0","num_feature":"6","num_nodes":"15","size_leaf_vector":"1"}},{"base_weights":[3.583029E-2,-1.5127486E-1,4.403553E-1,5.9578073E-1,-1.4691196E-1,5.0425965E-1,6.2573236E-1,6.3101E-1,3.7783188E-1,5.566175E-1,6.753694E-1,2.688193E-1,6.839746E-1,5.103143E-1,3.6034897E-2,6.160158E-1,9.5745146E-2,1.4016439E-1,2.2910842E-1,1.0295584E-1,2.3417506E-2,3.0293664E-1,1.5212414E-1,7.3583804E-2,2.597952E-1,2.1837318E-1,1.5305755E-1],"categories":[],"categories_nodes":[],"categories_segments":[],"categories_sizes":[],"default_left":[1,0,0,0,0,0,0,1,0,0,1,0,0,0,0,0,0,0,0,0,0,0,0,0,0,0,0],"id":31,"left_children":[1,-1,3,5,-1,7,9,11,13,15,17,19,21,23,-1,25,-1,-1,-1,-1,-1,-1,-1,-1,-1,-1,-1],"loss_changes":[7.6079155E1,0E0,2.9065804E1,1.5321732E-1,0E0,5.1980114E-1,5.183029E-2,2.4075985E-1,8.3256674E-1,6.187439E-1,8.912239E-1,3.6645025E-2,5.6363106E-1,1.3885384E0,0E0,1.6341972E-1,0E0,0E0,0E0,0E0,0E0,0E0,0E0,0E0,0E0,0E0,0E0],"parents":[2147483647,0,0,2,2,3,3,5,5,6,6,7,7,8,8,9,9,10,10,11,11,12,12,13,13,15,15],"right_children":[2,-1,4,6,-1,8,10,12,14,16,18,20,22,24,-1,26,-1,-1,-1,-1,-1,-1,-1,-1,-1,-1,-1],"split_conditions":[4E0,-1.5127486E-1,5E0,1E0,-1.4691196E-1,2E0,2E0,2E0,4E0,5E0,3E0,1E0,3E0,3E0,3.6034897E-2,1E0,9.5745146E-2,1.4016439E-1,2.2910842E-1,1.0295584E-1,2.3417506E-2,3.0293664E-1,1.5212414E-1,7.3583804E-2,2.597952E-1,2.1837318E-1,1.5305755E-1],"split_indices":[1,0,1,4,0,3,3,0,0,0,0,3,0,0,0,3,0,0,0,0,0,0,0,0,0,0,0],"split_type":[0,0,0,0,0,0,0,0,0,0,0,0,0,0,0,0,0,0,0,0,0,0,0,0,0,0,0],"sum_hessian":[3.4621057E2,1.4815837E2,1.980522E2,1.7000206E2,2.805014E1,4.631534E1,1.2368673E2,2.1135168E1,2.5180168E1,5.6804916E1,6.688181E1,3.4714725E0,1.7663696E1,1.5983482E1,9.196687E0,4.416395E1,1.2640964E1,2.179876E1,4.508305E1,1.9228324E0,1.54864E0,4.55873E0,1.3104966E1,1.0126861E1,5.8566217E0,1.860895E1,2.5555002E1],"tree_param":{"num_deleted":"0","num_feature":"6","num_nodes":"27","size_leaf_vector":"1"}},{"base_weights":[7.488546E-2,4.8333877E-1,-1.3382138E-1],"categories":[],"categories_nodes":[],"categories_segments":[],"categories_sizes":[],"default_left":[1,0,0],"id":32,"left_children":[1,-1,-1],"loss_changes":[9.762063E0,0E0,0E0],"parents":[2147483647,0,0],"right_children":[2,-1,-1],"split_conditions":[1.5E0,4.8333877E-1,-1.3382138E-1],"split_indices":[1,0,0],"split_type":[0,0,0],"sum_hessian":[1.029976E1,2.0783374E0,8.221422E0],"tree_param":{"num_deleted":"0","num_feature":"6","num_nodes":"3","size_leaf_vector":"1"}},{"base_weights":[-3.7213348E-2,4.215349E-1,-5.332846E-1,-1.5827101E-1,2.4431936E-1,-1.6081269E-1,-2.3284394E-1,-3.2840198E-1,5.7886373E-2,4.7817705E-3,-1.3382988E-1],"categories":[],"categories_nodes":[],"categories_segments":[],"categories_sizes":[],"default_left":[0,0,0,0,0,0,1,0,0,0,0],"id":33,"left_children":[1,3,5,-1,-1,-1,7,9,-1,-1,-1],"loss_changes":[3.06044E2,2.60968E2,4.1047668E-1,0E0,0E0,0E0,3.7440372E-1,2.751367E-1,0E0,0E0,0E0],"parents":[2147483647,0,0,1,1,2,2,6,6,7,7],"right_children":[2,4,6,-1,-1,-1,8,10,-1,-1,-1],"split_conditions":[3E0,2E0,1.000001E1,-1.5827101E-1,2.4431936E-1,-1.6081269E-1,5E0,4.5E0,5.7886373E-2,4.7817705E-3,-1.3382988E-1],"split_indices":[1,1,1,0,0,0,0,2,0,0,0],"split_type":[0,0,0,0,0,0,0,0,0,0,0],"sum_hessian":[1.3428359E3,6.9774115E2,6.450948E2,2.041643E2,4.9357684E2,6.3845044E2,6.644352E0,5.61334E0,1.031012E0,1.650153E0,3.9631867E0],"tree_param":{"num_deleted":"0","num_feature":"6","num_nodes":"11","size_leaf_vector":"1"}},{"base_weights":[3.172579E-2,2.0223093E-1,-1.5895677E-1,-1.5741168E-1,4.5803875E-1,4.619436E-1,-1.4877039E-1,4.5225495E-1,1.4783534E-1,3.2169353E-2,-2.3306009E-1,4.1800407E-1,4.6486822E-1,-1.1160302E-1,-2.1583722E-3,1.3830052E-1,8.758648E-2,1.4031385E-1,-2.439536E-2],"categories":[],"categories_nodes":[],"categories_segments":[],"categories_sizes":[],"default_left":[1,0,0,0,0,1,0,0,0,0,1,1,0,0,0,0,0,0,0],"id":34,"left_children":[1,3,-1,-1,5,7,9,11,-1,-1,13,15,17,-1,-1,-1,-1,-1,-1],"loss_changes":[1.3548766E2,2.020566E2,0E0,0E0,1.9721832E0,1.5716553E-2,1.521473E-1,7.341766E-2,0E0,0E0,1.4634287E-1,8.2317543E-1,7.2787476E-1,0E0,0E0,0E0,0E0,0E0,0E0],"parents":[2147483647,0,0,1,1,4,4,5,5,6,6,7,7,10,10,11,11,12,12],"right_children":[2,4,-1,-1,6,8,10,12,-1,-1,14,16,18,-1,-1,-1,-1,-1,-1],"split_conditions":[4E0,3E0,-1.5895677E-1,-1.5741168E-1,1.6E1,5E0,4E0,1E0,1.4783534E-1,3.2169353E-2,3E0,4E0,5E0,-1.1160302E-1,-2.1583722E-3,1.3830052E-1,8.758648E-2,1.4031385E-1,-2.439536E-2],"split_indices":[1,1,0,0,2,0,1,4,0,0,0,0,0,0,0,0,0,0,0],"split_type":[0,0,0,0,0,0,0,0,0,0,0,0,0,0,0,0,0,0,0],"sum_hessian":[1.4128579E3,1.08429E3,3.2856787E2,2.819665E2,8.0232355E2,7.974308E2,4.8927727E0,6.1872284E2,1.7870795E2,1.1445162E0,3.7482564E0,1.7571527E2,4.4300754E2,1.9200319E0,1.8282247E0,1.2904005E2,4.6675213E1,4.408552E2,2.1523416E0],"tree_param":{"num_deleted":"0","num_feature":"6","num_nodes":"19","size_leaf_vector":"1"}},{"base_weights":[-4.084359E-2,2.4440506E-1,-5.253244E-1,-1.5959616E-1,1.1427592E-1,2.737417E-1,-1.3151662E-1,7.721398E-2,-3.085641E-1,3.3415426E-2,-1.3397822E-1],"categories":[],"categories_nodes":[],"categories_segments":[],"categories_sizes":[],"default_left":[0,0,0,0,0,0,0,0,0,0,0],"id":35,"left_children":[1,-1,3,-1,5,-1,7,-1,9,-1,-1],"loss_changes":[5.2359894E2,0E0,3.497589E0,0E0,1.9127207E0,0E0,6.206258E-1,0E0,3.8919616E-1,0E0,0E0],"parents":[2147483647,0,0,2,2,4,4,6,6,8,8],"right_children":[2,-1,4,-1,6,-1,8,-1,10,-1,-1],"split_conditions":[1.5E0,2.4440506E-1,1.000001E1,-1.5959616E-1,3E0,2.737417E-1,3E0,7.721398E-2,1E0,3.3415426E-2,-1.3397822E-1],"split_indices":[1,0,1,0,2,0,0,0,3,0,0],"split_type":[0,0,0,0,0,0,0,0,0,0,0],"sum_hessian":[1.261215E3,4.5574673E2,8.054682E2,7.9733057E2,8.137616E0,1.2772987E0,6.8603177E0,2.004208E0,4.8561096E0,1.2490327E0,3.6070771E0],"tree_param":{"num_deleted":"0","num_feature":"6","num_nodes":"11","size_leaf_vector":"1"}},{"base_weights":[-3.8940303E-2,-5.3134304E-1,2.4440293E-1,-1.600428E-1,-2.2409002E-1,1.1188361E-1,-1.3055481E-1,4.5267165E-2,1.0579831E-2],"categories":[],"categories_nodes":[],"categories_segments":[],"categories_sizes":[],"default_left":[1,0,0,0,0,0,0,0,0],"id":36,"left_children":[1,3,-1,-1,5,7,-1,-1,-1],"loss_changes":[5.503759E2,4.2462158E-1,0E0,0E0,5.769695E-1,5.645983E-3,0E0,0E0,0E0],"parents":[2147483647,0,0,1,1,4,4,5,5],"right_children":[2,4,-1,-1,6,8,-1,-1,-1],"split_conditions":[5E0,5E0,2.4440293E-1,-1.600428E-1,1E0,1.5E1,-1.3055481E-1,4.5267165E-2,1.0579831E-2],"split_indices":[1,1,0,0,4,2,0,0,0],"split_type":[0,0,0,0,0,0,0,0,0],"sum_hessian":[1.3073815E3,8.293527E2,4.780287E2,8.2290393E2,6.4487877E0,2.6696963E0,3.7790911E0,1.126686E0,1.5430102E0],"tree_param":{"num_deleted":"0","num_feature":"6","num_nodes":"9","size_leaf_vector":"1"}},{"base_weights":[2.9100724E-2,-1.5837932E-1,3.5508385E-1,4.6226206E-1,-1.5615703E-1,1.399599E-1,-6.893823E-3,-1.18690304E-1,2.0507531E-1,-8.971231E-2,4.0161636E-1,1.9916739E-1,-4.0112855E-3],"categories":[],"categories_nodes":[],"categories_segments":[],"categories_sizes":[],"default_left":[0,0,1,0,0,0,0,0,0,0,1,0,0],"id":37,"left_children":[1,-1,3,5,-1,-1,7,-1,9,-1,11,-1,-1],"loss_changes":[2.5136168E2,0E0,8.2186134E1,1.5631104E0,0E0,0E0,7.410445E-1,0E0,6.9884396E-1,0E0,5.127544E-1,0E0,0E0],"parents":[2147483647,0,0,2,2,3,3,6,6,8,8,10,10],"right_children":[2,-1,4,6,-1,-1,8,-1,10,-1,12,-1,-1],"split_conditions":[4E0,-1.5837932E-1,5E0,5E0,-1.5615703E-1,1.399599E-1,1E0,-1.18690304E-1,8E0,-8.971231E-2,3E0,1.9916739E-1,-4.0112855E-3],"split_indices":[1,0,1,1,0,0,4,0,2,0,0,0,0],"split_type":[0,0,0,0,0,0,0,0,0,0,0,0,0],"sum_hessian":[1.3822476E3,5.1005646E2,8.7219116E2,7.7749445E2,9.469669E1,7.7048596E2,7.0085163E0,2.16731E0,4.841206E0,1.2117133E0,3.629493E0,1.8564296E0,1.7730633E0],"tree_param":{"num_deleted":"0","num_feature":"6","num_nodes":"13","size_leaf_vector":"1"}},{"base_weights":[4.8811626E-2,2.1054511E-1,-1.501114E-1,-1.4943993E-1,4.4189042E-1,4.8664364E-1,4.1679156E-1,5.6209624E-1,3.9228517E-1,1.3196982E-1,3.0148536E-1,4.5398948E-1,2.5738576E-1,1.5311223E-1,2.03634E-1,2.8362734E-2,3.4285763E-1,6.814427E-2,1.438353E-1,1.7000454E-2,8.330596E-2,6.593604E-2,1.1432361E-1],"categories":[],"categories_nodes":[],"categories_segments":[],"categories_sizes":[],"default_left":[0,0,0,0,0,0,0,0,0,0,0,0,0,0,0,0,0,0,0,0,0,0,0],"id":38,"left_children":[1,3,-1,-1,5,7,9,11,13,-1,15,17,-1,-1,19,-1,21,-1,-1,-1,-1,-1,-1],"loss_changes":[3.0979279E1,4.4358875E1,0E0,0E0,2.5745392E-2,2.575922E-1,2.3332214E-1,7.300682E-1,6.345258E-1,0E0,1.9110703E-1,5.1428795E-2,0E0,0E0,1.4125568E-1,0E0,1.6797543E-2,0E0,0E0,0E0,0E0,0E0,0E0],"parents":[2147483647,0,0,1,1,4,4,5,5,6,6,7,7,8,8,10,10,11,11,14,14,16,16],"right_children":[2,4,-1,-1,6,8,10,12,14,-1,16,18,-1,-1,20,-1,22,-1,-1,-1,-1,-1,-1],"split_conditions":[4E0,3E0,-1.501114E-1,-1.4943993E-1,1E0,2E0,5E0,5E0,4E0,1.3196982E-1,1E0,2E0,2.5738576E-1,1.5311223E-1,5E0,2.8362734E-2,2E0,6.814427E-2,1.438353E-1,1.7000454E-2,8.330596E-2,6.593604E-2,1.1432361E-1],"split_indices":[1,1,0,0,4,3,0,0,0,0,3,0,0,0,0,0,3,0,0,0,0,0,0],"split_type":[0,0,0,0,0,0,0,0,0,0,0,0,0,0,0,0,0,0,0,0,0,0,0],"sum_hessian":[3.4659607E2,2.6822183E2,7.837427E1,6.572716E1,2.0249466E2,6.615183E1,1.3634283E2,3.400396E1,3.2147873E1,1.11235664E2,2.5107168E1,2.6760199E1,7.24376E0,1.8722725E1,1.3425147E1,4.7305017E0,2.0376667E1,3.7017498E0,2.3058449E1,5.0895634E0,8.335584E0,6.428254E0,1.3948412E1],"tree_param":{"num_deleted":"0","num_feature":"6","num_nodes":"23","size_leaf_vector":"1"}},{"base_weights":[3.0614201E-2,-1.584729E-1,3.597255E-1,4.6824393E-1,-1.5624999E-1,4.7254634E-1,-9.6109165E-3,4.9892434E-1,4.5913187E-1,-1.0732899E-1,1.6060278E-1,4.7448066E-1,5.640063E-1,4.7978243E-1,4.262706E-1,-9.008283E-2,3.3648258E-1,1.5912275E-1,1.3493308E-1,2.0546666E-1,1.5260817E-1,1.5929368E-1,1.3029157E-1,1.1182354E-1,1.4076503E-1,4.439118E-2,-8.935666E-2,7.951598E-3,1.5898898E-1],"categories":[],"categories_nodes":[],"categories_segments":[],"categories_sizes":[],"default_left":[0,0,1,0,0,0,0,0,1,0,0,0,0,0,0,0,0,0,0,0,0,0,0,0,0,0,0,0,0],"id":39,"left_children":[1,-1,3,5,-1,7,9,11,13,-1,15,17,19,21,23,25,27,-1,-1,-1,-1,-1,-1,-1,-1,-1,-1,-1,-1],"loss_changes":[2.5595021E2,0E0,8.392924E1,1.6085815E0,0E0,4.4555664E-2,5.2810735E-1,1.2873459E-1,1.5182495E-1,0E0,2.9592773E-1,2.0370483E-2,7.0991516E-2,5.016632E-1,3.1154633E-1,2.0594743E-1,2.109533E-1,0E0,0E0,0E0,0E0,0E0,0E0,0E0,0E0,0E0,0E0,0E0,0E0],"parents":[2147483647,0,0,2,2,3,3,5,5,6,6,7,7,8,8,10,10,11,11,12,12,13,13,14,14,15,15,16,16],"right_children":[2,-1,4,6,-1,8,10,12,14,-1,16,18,20,22,24,26,28,-1,-1,-1,-1,-1,-1,-1,-1,-1,-1,-1,-1],"split_conditions":[4E0,-1.584729E-1,5E0,5E0,-1.5624999E-1,1E0,1.5E1,5E0,4E0,-1.0732899E-1,2E0,2E0,1E0,2E0,2E0,4E0,4E0,1.5912275E-1,1.3493308E-1,2.0546666E-1,1.5260817E-1,1.5929368E-1,1.3029157E-1,1.1182354E-1,1.4076503E-1,4.439118E-2,-8.935666E-2,7.951598E-3,1.5898898E-1],"split_indices":[1,0,1,1,0,4,2,0,0,0,3,0,3,3,3,0,0,0,0,0,0,0,0,0,0,0,0,0,0],"split_type":[0,0,0,0,0,0,0,0,0,0,0,0,0,0,0,0,0,0,0,0,0,0,0,0,0,0,0,0,0],"sum_hessian":[1.3895587E3,5.147935E2,8.7476526E2,7.792057E2,9.55596E1,7.722636E2,6.942071E0,2.4813742E2,5.2412616E2,1.9177296E0,5.024341E0,1.8641399E2,6.1723427E1,3.135107E2,2.1061546E2,2.2727513E0,2.75159E0,5.0840935E1,1.3557306E2,1.5803502E1,4.5919926E1,1.4245949E2,1.7105122E2,9.806833E1,1.12547134E2,1.1933302E0,1.0794212E0,1.494396E0,1.257194E0],"tree_param":{"num_deleted":"0","num_feature":"6","num_nodes":"29","size_leaf_vector":"1"}},{"base_weights":[-4.293454E-2,5.717079E-1,-1.5956877E-1,-4.7887942E-1,2.4398936E-1,-1.5659866E-1,4.817011E-2,2.2825946E-1,-2.006603E-1,-1.3193299E-1,1.7541611E-1,4.224465E-2,-1.1469061E-1,2.3140188E-2,-9.100482E-2],"categories":[],"categories_nodes":[],"categories_segments":[],"categories_sizes":[],"default_left":[1,1,0,0,0,0,0,1,0,1,0,0,0,0,0],"id":40,"left_children":[1,3,-1,5,-1,-1,7,9,11,13,-1,-1,-1,-1,-1],"loss_changes":[3.7363992E2,1.4020491E2,0E0,2.3798523E0,0E0,0E0,4.379653E-1,7.8906184E-1,3.1475216E-1,1.514765E-1,0E0,0E0,0E0,0E0,0E0],"parents":[2147483647,0,0,1,1,3,3,6,6,7,7,8,8,9,9],"right_children":[2,4,-1,6,-1,-1,8,10,12,14,-1,-1,-1,-1,-1],"split_conditions":[2E0,1.5E0,-1.5956877E-1,1.5E0,2.4398936E-1,-1.5659866E-1,2E0,3E0,4E0,3E0,1.7541611E-1,4.224465E-2,-1.1469061E-1,2.3140188E-2,-9.100482E-2],"split_indices":[1,1,0,1,0,0,3,2,0,0,0,0,0,0,0],"split_type":[0,0,0,0,0,0,0,0,0,0,0,0,0,0,0],"sum_hessian":[1.2412317E3,5.498636E2,6.9136804E2,1.0262079E2,4.472428E2,9.4869446E1,7.7513447E0,4.544769E0,3.2065756E0,2.573853E0,1.970916E0,1.191461E0,2.0151145E0,1.4073757E0,1.1664773E0],"tree_param":{"num_deleted":"0","num_feature":"6","num_nodes":"15","size_leaf_vector":"1"}},{"base_weights":[3.0301275E-2,2.043564E-1,-1.592649E-1,-1.5763357E-1,4.6390113E-1,4.2408332E-1,4.749835E-1,1.4098006E-1,1.1567014E-1,5.0254405E-1,4.6137288E-1,5.238828E-1,3.9745232E-1,4.061049E-1,1.4176497E-1,1.7841208E-1,1.4731452E-1,6.888259E-2,1.3205117E-1,8.954281E-2,1.3323376E-1],"categories":[],"categories_nodes":[],"categories_segments":[],"categories_sizes":[],"default_left":[0,0,0,0,0,1,0,0,0,0,0,0,0,0,0,0,0,0,0,0,0],"id":41,"left_children":[1,3,-1,-1,5,7,9,-1,-1,11,13,15,17,19,-1,-1,-1,-1,-1,-1,-1],"loss_changes":[1.410679E2,2.0901955E2,0E0,0E0,1.5757751E-1,1.4811325E-1,3.753662E-3,0E0,0E0,2.3230362E-1,7.537079E-2,8.037186E-2,1.6636229E-1,1.9426632E-1,0E0,0E0,0E0,0E0,0E0,0E0,0E0],"parents":[2147483647,0,0,1,1,4,4,5,5,6,6,9,9,10,10,11,11,12,12,13,13],"right_children":[2,4,-1,-1,6,8,10,-1,-1,12,14,16,18,20,-1,-1,-1,-1,-1,-1,-1],"split_conditions":[4E0,3E0,-1.592649E-1,-1.5763357E-1,1E0,3E0,2E0,1.4098006E-1,1.1567014E-1,5E0,2E0,1E0,1E0,1E0,1.4176497E-1,1.7841208E-1,1.4731452E-1,6.888259E-2,1.3205117E-1,8.954281E-2,1.3323376E-1],"split_indices":[1,1,0,0,3,0,3,0,0,0,0,4,4,4,0,0,0,0,0,0,0],"split_type":[0,0,0,0,0,0,0,0,0,0,0,0,0,0,0,0,0,0,0,0,0],"sum_hessian":[1.4421177E3,1.1012068E3,3.4091095E2,2.886214E2,8.125854E2,1.8547174E2,6.2711365E2,7.956071E1,1.0591103E2,1.9543987E2,4.316738E2,1.5914136E2,3.6298508E1,7.889374E1,3.5278006E2,4.4988518E1,1.1415284E2,8.657469E0,2.7641039E1,2.2899797E1,5.5993942E1],"tree_param":{"num_deleted":"0","num_feature":"6","num_nodes":"21","size_leaf_vector":"1"}},{"base_weights":[4.8641235E-2,-1.5059985E-1,3.5397357E-1,4.5103547E-1,-1.4510876E-1,4.6799383E-1,3.8285807E-1,4.3657604E-1,5.437705E-1,4.6269637E-2,1.3007744E-1,1.7047651E-1,3.9602345E-1,8.140034E-2,6.0695404E-1,8.649783E-2,1.3200484E-1,2.2995022E-1,1.4927408E-1],"categories":[],"categories_nodes":[],"categories_segments":[],"categories_sizes":[],"default_left":[1,0,0,0,0,0,0,0,0,0,0,0,0,0,0,0,0,0,0],"id":42,"left_children":[1,-1,3,5,-1,7,9,11,13,-1,-1,-1,15,-1,17,-1,-1,-1,-1],"loss_changes":[5.689491E1,0E0,1.7910109E1,4.6878815E-2,0E0,1.2465668E-1,4.486189E-1,3.7611198E-1,5.324526E-1,0E0,0E0,0E0,2.9655647E-1,0E0,1.7817783E-1,0E0,0E0,0E0,0E0],"parents":[2147483647,0,0,2,2,3,3,5,5,6,6,7,7,8,8,12,12,14,14],"right_children":[2,-1,4,6,-1,8,10,12,14,-1,-1,-1,16,-1,18,-1,-1,-1,-1],"split_conditions":[4E0,-1.5059985E-1,5E0,5E0,-1.4510876E-1,4E0,1E0,1E0,1E0,4.6269637E-2,1.3007744E-1,1.7047651E-1,2E0,8.140034E-2,2E0,8.649783E-2,1.3200484E-1,2.2995022E-1,1.4927408E-1],"split_indices":[1,0,1,0,0,0,3,3,3,0,0,0,3,0,3,0,0,0,0],"split_type":[0,0,0,0,0,0,0,0,0,0,0,0,0,0,0,0,0,0,0],"sum_hessian":[3.363446E2,1.1974702E2,2.165976E2,1.9451987E2,2.207772E1,1.5107683E2,4.344304E1,1.1157713E2,3.949969E1,8.62322E0,3.481982E1,2.3207357E1,8.8369774E1,8.432904E0,3.1066788E1,2.78195E1,6.0550274E1,1.019173E1,2.0875057E1],"tree_param":{"num_deleted":"0","num_feature":"6","num_nodes":"19","size_leaf_vector":"1"}},{"base_weights":[9.7674824E-2,-1.3308847E-1,4.886877E-1],"categories":[],"categories_nodes":[],"categories_segments":[],"categories_sizes":[],"default_left":[0,0,0],"id":43,"left_children":[1,-1,-1],"loss_changes":[9.730737E0,0E0,0E0],"parents":[2147483647,0,0],"right_children":[2,-1,-1],"split_conditions":[5E0,-1.3308847E-1,4.886877E-1],"split_indices":[1,0,0],"split_type":[0,0,0],"sum_hessian":[9.867664E0,7.815282E0,2.052382E0],"tree_param":{"num_deleted":"0","num_feature":"6","num_nodes":"3","size_leaf_vector":"1"}},{"base_weights":[-4.9675964E-2,3.8029727E-1,-5.2568746E-1,-1.5586019E-1,2.1290453E-1,-1.5868418E-1,-2.1952714E-1,-3.1217685E-1,4.800226E-2,5.0929547E-3,-1.2990929E-1],"categories":[],"categories_nodes":[],"categories_segments":[],"categories_sizes":[],"default_left":[0,0,0,0,0,0,1,0,0,0,0],"id":44,"left_children":[1,3,5,-1,-1,-1,7,9,-1,-1,-1],"loss_changes":[2.3141805E2,1.7646416E2,4.1938782E-1,0E0,0E0,0E0,3.0883673E-1,2.5623465E-1,0E0,0E0,0E0],"parents":[2147483647,0,0,1,1,2,2,6,6,7,7],"right_children":[2,4,6,-1,-1,-1,8,10,-1,-1,-1],"split_conditions":[3E0,2E0,1.000001E1,-1.5586019E-1,2.1290453E-1,-1.5868418E-1,5E0,4.5E0,4.800226E-2,5.0929547E-3,-1.2990929E-1],"split_indices":[1,1,1,0,0,0,0,2,0,0,0],"split_type":[0,0,0,0,0,0,0,0,0,0,0],"sum_hessian":[1.1286998E3,5.931334E2,5.3556647E2,1.5878319E2,4.3435022E2,5.2920416E2,6.3622932E0,5.2565665E0,1.1057265E0,1.6425402E0,3.6140265E0],"tree_param":{"num_deleted":"0","num_feature":"6","num_nodes":"11","size_leaf_vector":"1"}},{"base_weights":[3.561742E-2,1.7601953E-1,-1.5705669E-1,-1.5533447E-1,3.536232E-1,3.5661614E-1,-1.4560564E-1,3.7888414E-1,3.4913898E-1,-1.001872E-1,-1.7637031E-2,3.1824908E-1,1.2478862E-1,3.201984E-1,3.608167E-1,3.5505608E-2,-3.2735E-2,1.0960607E-1,8.22671E-2,8.206739E-2,1.1294247E-1,1.2781775E-1,1.0360364E-1],"categories":[],"categories_nodes":[],"categories_segments":[],"categories_sizes":[],"default_left":[1,0,0,0,0,0,0,0,0,0,0,0,0,0,0,0,0,0,0,0,0,0,0],"id":45,"left_children":[1,3,-1,-1,5,7,9,11,13,-1,15,17,-1,19,21,-1,-1,-1,-1,-1,-1,-1,-1],"loss_changes":[1.0589797E2,1.3301758E2,0E0,0E0,1.3352432E0,9.918213E-3,1.3459563E-1,3.2390404E-1,1.048584E-1,0E0,6.922279E-2,6.834602E-2,0E0,4.1242218E-1,3.1389618E-1,0E0,0E0,0E0,0E0,0E0,0E0,0E0,0E0],"parents":[2147483647,0,0,1,1,4,4,5,5,6,6,7,7,8,8,10,10,11,11,13,13,14,14],"right_children":[2,4,-1,-1,6,8,10,12,14,-1,16,18,-1,20,22,-1,-1,-1,-1,-1,-1,-1,-1],"split_conditions":[4E0,3E0,-1.5705669E-1,-1.5533447E-1,1.6E1,1E0,1E0,3E0,2E0,-1.001872E-1,4E0,2E0,1.2478862E-1,4E0,2E0,3.5505608E-2,-3.2735E-2,1.0960607E-1,8.22671E-2,8.206739E-2,1.1294247E-1,1.2781775E-1,1.0360364E-1],"split_indices":[1,1,0,0,2,3,3,0,3,0,0,0,0,0,0,0,0,0,0,0,0,0,0],"split_type":[0,0,0,0,0,0,0,0,0,0,0,0,0,0,0,0,0,0,0,0,0,0,0],"sum_hessian":[1.3467694E3,1.0770126E3,2.697568E2,2.1911887E2,8.5789374E2,8.5306525E2,4.828529E0,2.0195213E2,6.511131E2,1.3021972E0,3.5263317E0,8.026865E1,1.2168348E2,1.9536484E2,4.5574826E2,1.3000257E0,2.226306E0,3.5252247E1,4.50164E1,1.1003326E2,8.533158E1,8.227119E1,3.7347708E2],"tree_param":{"num_deleted":"0","num_feature":"6","num_nodes":"23","size_leaf_vector":"1"}},{"base_weights":[-5.2662283E-2,6.9789493E-1,-1.5763225E-1,2.1286723E-1,5.2037705E-3,3.1644756E-1,-2.5484848E-1,1.4760514E-1,-1.7199429E-2,4.4018168E-2,-1.255014E-1],"categories":[],"categories_nodes":[],"categories_segments":[],"categories_sizes":[],"default_left":[1,0,0,0,0,0,0,0,0,0,0],"id":46,"left_children":[1,3,-1,-1,5,7,9,-1,-1,-1,-1],"loss_changes":[3.7681686E2,3.311905E0,0E0,0E0,7.122249E-1,2.905754E-1,3.7684965E-1,0E0,0E0,0E0,0E0],"parents":[2147483647,0,0,1,1,4,4,5,5,6,6],"right_children":[2,4,-1,-1,6,8,10,-1,-1,-1,-1],"split_conditions":[1.5E0,6E0,-1.5763225E-1,2.1286723E-1,1E0,2E0,3E0,1.4760514E-1,-1.7199429E-2,4.4018168E-2,-1.255014E-1],"split_indices":[1,2,0,0,4,3,0,0,0,0,0],"split_type":[0,0,0,0,0,0,0,0,0,0,0],"sum_hessian":[1.0598792E3,4.0942398E2,6.504552E2,4.026209E2,6.803082E0,2.9980278E0,3.805054E0,1.8246372E0,1.1733906E0,1.1305748E0,2.674479E0],"tree_param":{"num_deleted":"0","num_feature":"6","num_nodes":"11","size_leaf_vector":"1"}},{"base_weights":[-5.088095E-2,-5.2408856E-1,2.130865E-1,-1.5798904E-1,-2.1395352E-1,8.3422266E-2,-1.2637553E-1,3.7348103E-2,5.070933E-3],"categories":[],"categories_nodes":[],"categories_segments":[],"categories_sizes":[],"default_left":[1,0,0,0,0,0,0,0,0],"id":47,"left_children":[1,3,-1,-1,5,7,-1,-1,-1],"loss_changes":[3.9656516E2,4.2242432E-1,0E0,0E0,4.7912562E-1,8.258443E-3,0E0,0E0,0E0],"parents":[2147483647,0,0,1,1,4,4,5,5],"right_children":[2,4,-1,-1,6,8,-1,-1,-1],"split_conditions":[5E0,5E0,2.130865E-1,-1.5798904E-1,1E0,1.5E1,-1.2637553E-1,3.7348103E-2,5.070933E-3],"split_indices":[1,1,0,0,4,2,0,0,0],"split_type":[0,0,0,0,0,0,0,0,0],"sum_hessian":[1.098952E3,6.778526E2,4.2109943E2,6.716504E2,6.2022123E0,2.7930577E0,3.409155E0,1.1879975E0,1.6050601E0],"tree_param":{"num_deleted":"0","num_feature":"6","num_nodes":"9","size_leaf_vector":"1"}},{"base_weights":[3.2926425E-2,-1.5653759E-1,2.849194E-1,3.5603324E-1,-1.538355E-1,3.5933408E-1,-2.2718528E-2,3.3125073E-1,3.6592925E-1,-1.14495106E-1,1.5769535E-1,3.6349437E-1,9.064679E-2,4.073729E-1,3.5191894E-1,4.3516594E-1,-1.4379717E-1,1.09795846E-1,3.2467086E-2,9.15458E-2,1.4636417E-1,1.15325585E-1,9.691558E-2,1.6146809E-1,3.8546667E-2,-1.00856535E-1,5.0343122E-2],"categories":[],"categories_nodes":[],"categories_segments":[],"categories_sizes":[],"default_left":[0,0,1,0,0,1,0,0,0,0,0,0,0,0,0,0,1,0,0,0,0,0,0,0,0,0,0],"id":48,"left_children":[1,-1,3,5,-1,7,9,11,13,-1,15,17,-1,19,21,23,25,-1,-1,-1,-1,-1,-1,-1,-1,-1,-1],"loss_changes":[1.843314E2,0E0,5.161634E1,1.0496521E0,0E0,3.175354E-2,5.871664E-1,4.74205E-2,2.3944855E-1,0E0,5.7482773E-1,7.8315735E-3,0E0,1.1696701E0,3.4496307E-1,3.9477944E-2,2.774105E-1,0E0,0E0,0E0,0E0,0E0,0E0,0E0,0E0,0E0,0E0],"parents":[2147483647,0,0,2,2,3,3,5,5,6,6,7,7,8,8,10,10,11,11,13,13,14,14,15,15,16,16],"right_children":[2,-1,4,6,-1,8,10,12,14,-1,16,18,-1,20,22,24,26,-1,-1,-1,-1,-1,-1,-1,-1,-1,-1],"split_conditions":[4E0,-1.5653759E-1,5E0,5E0,-1.538355E-1,2E0,1E0,2E0,3E0,-1.14495106E-1,4E0,2E0,9.064679E-2,2E0,2E0,3E0,7.5E0,1.09795846E-1,3.2467086E-2,9.15458E-2,1.4636417E-1,1.15325585E-1,9.691558E-2,1.6146809E-1,3.8546667E-2,-1.00856535E-1,5.0343122E-2],"split_indices":[1,0,1,1,0,0,4,3,0,0,0,0,0,3,3,0,2,0,0,0,0,0,0,0,0,0,0],"split_type":[0,0,0,0,0,0,0,0,0,0,0,0,0,0,0,0,0,0,0,0,0,0,0,0,0,0,0],"sum_hessian":[1.3166133E3,4.1093698E2,9.0567633E2,8.3205396E2,7.362234E1,8.24916E2,7.137928E0,1.6662502E2,6.58291E2,2.0145612E0,5.123367E0,7.3583916E1,9.304109E1,1.5922214E2,4.9906888E2,2.4370868E0,2.68628E0,7.244306E1,1.140858E0,7.226187E1,8.6960266E1,2.2896898E2,2.700999E2,1.2589718E0,1.178115E0,1.6120758E0,1.0742042E0],"tree_param":{"num_deleted":"0","num_feature":"6","num_nodes":"27","size_leaf_vector":"1"}},{"base_weights":[5.9417803E-2,1.9188617E-1,-1.4935324E-1,-1.4841187E-1,1.0518164E-1],"categories":[],"categories_nodes":[],"categories_segments":[],"categories_sizes":[],"default_left":[0,0,0,0,0],"id":49,"left_children":[1,3,-1,-1,-1],"loss_changes":[2.5126244E1,3.0106647E1,0E0,0E0,0E0],"parents":[2147483647,0,0,1,1],"right_children":[2,4,-1,-1,-1],"split_conditions":[4E0,3E0,-1.4935324E-1,-1.4841187E-1,1.0518164E-1],"split_indices":[1,1,0,0,0],"split_type":[0,0,0,0,0],"sum_hessian":[3.3807962E2,2.7367838E2,6.440123E1,5.0989536E1,2.2268884E2],"tree_param":{"num_deleted":"0","num_feature":"6","num_nodes":"5","size_leaf_vector":"1"}},{"base_weights":[3.4683723E-2,-1.566118E-1,2.895012E-1,3.616157E-1,-1.539121E-1,3.648959E-1,-2.246878E-2,3.5649082E-1,3.917113E-1,-1.0336358E-1,1.23388425E-1,1.1027203E-1,3.1766525E-1,3.410292E-1,1.2841825E-1,-8.456871E-2,2.5808868E-1,1.2563609E-1,8.480432E-2,1.3192391E-1,8.397359E-2,1.2089531E-2,1.574558E-1],"categories":[],"categories_nodes":[],"categories_segments":[],"categories_sizes":[],"default_left":[0,0,1,0,0,0,0,0,0,0,0,0,0,0,0,0,0,0,0,0,0,0,0],"id":50,"left_children":[1,-1,3,5,-1,7,9,11,13,-1,15,-1,17,19,-1,-1,21,-1,-1,-1,-1,-1,-1],"loss_changes":[1.8783394E2,0E0,5.274884E1,1.0588608E0,0E0,4.673004E-2,4.1850698E-1,1.5892792E-1,1.9892502E-1,0E0,4.1369462E-1,0E0,4.1099358E-1,3.7834835E-1,0E0,0E0,2.815088E-1,0E0,0E0,0E0,0E0,0E0,0E0],"parents":[2147483647,0,0,2,2,3,3,5,5,6,6,7,7,8,8,10,10,12,12,13,13,16,16],"right_children":[2,-1,4,6,-1,8,10,12,14,-1,16,-1,18,20,-1,-1,22,-1,-1,-1,-1,-1,-1],"split_conditions":[4E0,-1.566118E-1,5E0,5E0,-1.539121E-1,5E0,1.5E1,4E0,2E0,-1.0336358E-1,1E0,1.1027203E-1,1E0,1E0,1.2841825E-1,-8.456871E-2,5E0,1.2563609E-1,8.480432E-2,1.3192391E-1,8.397359E-2,1.2089531E-2,1.574558E-1],"split_indices":[1,0,1,1,0,0,2,0,3,0,4,0,3,4,0,0,0,0,0,0,0,0,0],"split_type":[0,0,0,0,0,0,0,0,0,0,0,0,0,0,0,0,0,0,0,0,0,0,0],"sum_hessian":[1.3219885E3,4.1476495E2,9.072236E2,8.3292804E2,7.429554E1,8.2592426E2,7.0037622E0,6.3970667E2,1.8621762E2,1.7584995E0,5.2452626E0,4.910665E2,1.4864015E2,8.211151E1,1.0410611E2,1.0358498E0,4.2094126E0,3.53861E1,1.1325406E2,2.9028797E1,5.308271E1,2.9511292E0,1.2582835E0],"tree_param":{"num_deleted":"0","num_feature":"6","num_nodes":"23","size_leaf_vector":"1"}},{"base_weights":[-5.492388E-2,5.070856E-1,-1.5764254E-1,-4.6196377E-1,2.1269904E-1,-1.5416868E-1,2.635902E-2,1.795888E-1,-1.9379218E-1,3.5934538E-1,-8.912764E-2,3.5145707E-2,-1.1098897E-1,5.3041577E-3,1.5595123E-1],"categories":[],"categories_nodes":[],"categories_segments":[],"categories_sizes":[],"default_left":[1,1,0,0,0,0,0,1,0,0,0,0,0,0,0],"id":51,"left_children":[1,3,-1,5,-1,-1,7,9,11,13,-1,-1,-1,-1,-1],"loss_changes":[2.7628952E2,9.349338E1,0E0,2.1110344E0,0E0,0E0,3.3509058E-1,6.0096467E-1,2.6980582E-1,2.4528515E-1,0E0,0E0,0E0,0E0,0E0],"parents":[2147483647,0,0,1,1,3,3,6,6,7,7,8,8,9,9],"right_children":[2,4,-1,6,-1,-1,8,10,12,14,-1,-1,-1,-1,-1],"split_conditions":[2E0,1.5E0,-1.5764254E-1,1.5E0,2.1269904E-1,-1.5416868E-1,2E0,3E0,4E0,4E0,-8.912764E-2,3.5145707E-2,-1.1098897E-1,5.3041577E-3,1.5595123E-1],"split_indices":[1,1,0,1,0,0,3,0,0,2,0,0,0,0,0],"split_type":[0,0,0,0,0,0,0,0,0,0,0,0,0,0,0],"sum_hessian":[1.0427458E3,4.7515738E2,5.6758856E2,8.171028E1,3.9344708E2,7.380858E1,7.9017057E0,4.7676034E0,3.1341023E0,3.6408052E0,1.1267983E0,1.2546442E0,1.8794582E0,1.5184354E0,2.1223698E0],"tree_param":{"num_deleted":"0","num_feature":"6","num_nodes":"15","size_leaf_vector":"1"}},{"base_weights":[3.434449E-2,1.781186E-1,-1.5732197E-1,-1.5550578E-1,3.5866594E-1,3.2938823E-1,3.667984E-1,3.5130632E-1,2.8681627E-1,3.886841E-1,3.560776E-1,2.6224348E-1,3.8879123E-1,9.9709585E-2,7.805058E-2,1.4093858E-1,3.6668125E-1,1.0138809E-1,3.7991023E-1,1.3816363E-1,5.093294E-2,6.9560215E-2,1.3534364E-1,9.407628E-2,1.14676625E-1,1.2871414E-1,1.0603065E-1],"categories":[],"categories_nodes":[],"categories_segments":[],"categories_sizes":[],"default_left":[0,0,0,0,0,1,0,0,0,0,0,0,0,0,0,0,1,0,0,0,0,0,0,0,0,0,0],"id":52,"left_children":[1,3,-1,-1,5,7,9,11,13,15,17,19,21,-1,-1,-1,23,-1,25,-1,-1,-1,-1,-1,-1,-1,-1],"loss_changes":[1.1036509E2,1.3756245E2,0E0,0E0,8.5884094E-2,8.449173E-2,1.8959045E-2,3.2073593E-1,2.040863E-3,2.0177078E-1,7.111359E-2,6.658306E-1,7.4702644E-1,0E0,0E0,0E0,2.0217896E-2,0E0,9.7473145E-2,0E0,0E0,0E0,0E0,0E0,0E0,0E0,0E0],"parents":[2147483647,0,0,1,1,4,4,5,5,6,6,7,7,8,8,9,9,10,10,11,11,12,12,16,16,18,18],"right_children":[2,4,-1,-1,6,8,10,12,14,16,18,20,22,-1,-1,-1,24,-1,26,-1,-1,-1,-1,-1,-1,-1,-1],"split_conditions":[4E0,3E0,-1.5732197E-1,-1.5550578E-1,1E0,4E0,2E0,1E0,1E0,2E0,4E0,2E0,2E0,9.9709585E-2,7.805058E-2,1.4093858E-1,3E0,1.0138809E-1,1E0,1.3816363E-1,5.093294E-2,6.9560215E-2,1.3534364E-1,9.407628E-2,1.14676625E-1,1.2871414E-1,1.0603065E-1],"split_indices":[1,1,0,0,3,0,3,4,4,0,0,0,0,0,0,0,0,0,4,0,0,0,0,0,0,0,0],"split_type":[0,0,0,0,0,0,0,0,0,0,0,0,0,0,0,0,0,0,0,0,0,0,0,0,0,0,0],"sum_hessian":[1.3716665E3,1.0914922E3,2.8017432E2,2.2431476E2,8.6717737E2,1.9753467E2,6.6964276E2,1.2561172E2,7.192294E1,2.0858218E2,4.6106055E2,3.9576157E1,8.603556E1,2.2312105E1,4.961084E1,4.016536E1,1.6841682E2,2.7056226E2,1.904983E2,1.131968E1,2.8256475E1,2.5806965E1,6.0228596E1,4.2991196E1,1.2542562E2,6.1377056E1,1.2912126E2],"tree_param":{"num_deleted":"0","num_feature":"6","num_nodes":"27","size_leaf_vector":"1"}},{"base_weights":[5.9074197E-2,-1.499513E-1,2.9280582E-1,3.5637242E-1,-1.4298533E-1,3.6780468E-1,3.0902138E-1,3.467509E-1,4.1675708E-1,4.2258125E-2,1.02920055E-1,4.3630496E-1,3.17967E-1,6.763523E-2,4.5744362E-1,8.659764E-2,1.4525099E-1,7.369429E-2,1.0367323E-1,7.7764526E-2,1.4933181E-1],"categories":[],"categories_nodes":[],"categories_segments":[],"categories_sizes":[],"default_left":[1,0,0,0,0,0,0,0,0,0,0,0,0,0,0,0,0,0,0,0,0],"id":53,"left_children":[1,-1,3,5,-1,7,9,11,13,-1,-1,15,17,-1,19,-1,-1,-1,-1,-1,-1],"loss_changes":[4.3154667E1,0E0,1.1554764E1,3.0441284E-3,0E0,2.9045105E-2,2.2753334E-1,1.801529E-1,2.525139E-1,0E0,0E0,5.390024E-2,1.09404564E-1,0E0,1.644144E-1,0E0,0E0,0E0,0E0,0E0,0E0],"parents":[2147483647,0,0,2,2,3,3,5,5,6,6,7,7,8,8,11,11,12,12,14,14],"right_children":[2,-1,4,6,-1,8,10,12,14,-1,-1,16,18,-1,20,-1,-1,-1,-1,-1,-1],"split_conditions":[4E0,-1.499513E-1,5E0,5E0,-1.4298533E-1,4E0,1E0,1E0,1E0,4.2258125E-2,1.02920055E-1,1E0,2E0,6.763523E-2,1E0,8.659764E-2,1.4525099E-1,7.369429E-2,1.0367323E-1,7.7764526E-2,1.4933181E-1],"split_indices":[1,0,1,0,0,0,3,3,3,0,0,4,3,0,4,0,0,0,0,0,0],"split_type":[0,0,0,0,0,0,0,0,0,0,0,0,0,0,0,0,0,0,0,0,0],"sum_hessian":[3.282241E2,9.644973E1,2.3177437E2,2.1458322E2,1.7191147E1,1.6739934E2,4.718387E1,1.2270776E2,4.4691578E1,8.809321E0,3.837455E1,2.6403078E1,9.630469E1,8.985117E0,3.5706463E1,8.185243E0,1.8217834E1,2.9343319E1,6.696137E1,7.2919526E0,2.8414509E1],"tree_param":{"num_deleted":"0","num_feature":"6","num_nodes":"21","size_leaf_vector":"1"}},{"base_weights":[1.2111822E-1,-3.2919267E-1,4.6175736E-1,-1.3022877E-1,5.337595E-2],"categories":[],"categories_nodes":[],"categories_segments":[],"categories_sizes":[],"default_left":[0,0,0,0,0],"id":54,"left_children":[1,3,-1,-1,-1],"loss_changes":[7.183205E0,5.432066E-1,0E0,0E0,0E0],"parents":[2147483647,0,0,1,1],"right_children":[2,4,-1,-1,-1],"split_conditions":[2E1,5E0,4.6175736E-1,-1.3022877E-1,5.337595E-2],"split_indices":[2,0,0,0,0],"split_type":[0,0,0,0,0],"sum_hessian":[9.455355E0,7.759253E0,1.6961015E0,6.548575E0,1.2106781E0],"tree_param":{"num_deleted":"0","num_feature":"6","num_nodes":"5","size_leaf_vector":"1"}},{"base_weights":[-6.408204E-2,3.5292608E-1,-5.194389E-1,-1.5389468E-1,1.932947E-1,-1.5699607E-1,-2.0290856E-1,-2.9354575E-1,4.151853E-2,-1.2784466E-1,7.3290463E-3],"categories":[],"categories_nodes":[],"categories_segments":[],"categories_sizes":[],"default_left":[0,0,0,0,0,0,1,1,0,0,0],"id":55,"left_children":[1,3,5,-1,-1,-1,7,9,-1,-1,-1],"loss_changes":[1.771981E2,1.23256546E2,4.4176483E-1,0E0,0E0,0E0,2.5828537E-1,2.5834125E-1,0E0,0E0,0E0],"parents":[2147483647,0,0,1,1,2,2,6,6,7,7],"right_children":[2,4,6,-1,-1,-1,8,10,-1,-1,-1],"split_conditions":[3E0,2E0,1.000001E1,-1.5389468E-1,1.932947E-1,-1.5699607E-1,5E0,4E0,4.151853E-2,-1.2784466E-1,7.3290463E-3],"split_indices":[1,1,1,0,0,0,0,2,0,0,0],"split_type":[0,0,0,0,0,0,0,0,0,0,0],"sum_hessian":[9.312086E2,4.8618945E2,4.4501913E2,1.2222346E2,3.63966E2,4.3898303E2,6.0360913E0,4.8800616E0,1.1560296E0,3.203809E0,1.6762524E0],"tree_param":{"num_deleted":"0","num_feature":"6","num_nodes":"11","size_leaf_vector":"1"}},{"base_weights":[3.8627777E-2,1.5480554E-1,-1.5552841E-1,-1.5364878E-1,2.805867E-1,-1.4066221E-1,2.830023E-1,-1.0244598E-1,3.1995545E-3,2.6631933E-1,2.8932878E-1,3.172808E-2,-7.359607E-2,2.5006878E-1,3.1301895E-1,2.9053333E-1,-1.854685E-2,6.0806576E-2,-9.3641095E-2,8.39282E-2,4.9040362E-2,6.0879957E-2,1.0178928E-1,8.262911E-2,9.322692E-2],"categories":[],"categories_nodes":[],"categories_segments":[],"categories_sizes":[],"default_left":[1,0,0,0,1,0,0,0,0,0,0,0,0,0,0,0,0,0,0,0,0,0,0,0,0],"id":56,"left_children":[1,3,-1,-1,5,7,9,-1,11,13,15,-1,17,19,21,23,-1,-1,-1,-1,-1,-1,-1,-1,-1],"loss_changes":[8.341991E1,8.95972E1,0E0,0E0,9.53331E-1,1.6827634E-1,1.7204285E-2,0E0,4.2141404E-2,1.1758995E-1,2.8691864E-1,0E0,2.6652512E-1,4.593897E-1,1.12401485E-1,1.0800552E-1,0E0,0E0,0E0,0E0,0E0,0E0,0E0,0E0,0E0],"parents":[2147483647,0,0,1,1,4,4,5,5,6,6,8,8,9,9,10,10,12,12,13,13,14,14,15,15],"right_children":[2,4,-1,-1,6,8,10,-1,12,14,16,-1,18,20,22,24,-1,-1,-1,-1,-1,-1,-1,-1,-1],"split_conditions":[4E0,3E0,-1.5552841E-1,-1.5364878E-1,3E0,1E0,1E0,-1.0244598E-1,2E0,5E0,1.000001E1,3.172808E-2,4E0,4E0,1E0,4E0,-1.854685E-2,6.0806576E-2,-9.3641095E-2,8.39282E-2,4.9040362E-2,6.0879957E-2,1.0178928E-1,8.262911E-2,9.322692E-2],"split_indices":[1,1,0,0,2,3,4,0,3,0,0,0,0,0,3,0,0,0,0,0,0,0,0,0,0],"split_type":[0,0,0,0,0,0,0,0,0,0,0,0,0,0,0,0,0,0,0,0,0,0,0,0,0],"sum_hessian":[1.2867452E3,1.0652932E3,2.2145204E2,1.685368E2,8.967564E2,4.786717E0,8.919697E2,1.4244864E0,3.3622308E0,2.5709775E2,6.3487195E2,1.2781259E0,2.0841048E0,1.9544237E2,6.1655396E1,6.3287366E2,1.9983041E0,1.0352956E0,1.0488093E0,1.4388104E2,5.1561325E1,1.3562428E1,4.8092964E1,3.7066986E2,2.6220383E2],"tree_param":{"num_deleted":"0","num_feature":"6","num_nodes":"25","size_leaf_vector":"1"}},{"base_weights":[-6.640679E-2,6.3071406E-1,-1.5608881E-1,1.9298805E-1,-7.4876044E-3,2.550477E-1,-2.3779398E-1,1.2386619E-1,-2.2390632E-2,4.2648263E-2,-1.2121373E-1],"categories":[],"categories_nodes":[],"categories_segments":[],"categories_sizes":[],"default_left":[1,0,0,0,0,0,0,0,0,0,0],"id":57,"left_children":[1,3,-1,-1,5,7,9,-1,-1,-1,-1],"loss_changes":[2.7751382E2,2.781784E0,0E0,0E0,5.2468807E-1,2.4254969E-1,3.4837884E-1,0E0,0E0,0E0,0E0],"parents":[2147483647,0,0,1,1,4,4,5,5,6,6],"right_children":[2,4,-1,-1,6,8,10,-1,-1,-1,-1],"split_conditions":[1.5E0,6E0,-1.5608881E-1,1.9298805E-1,1E0,2E0,3E0,1.2386619E-1,-2.2390632E-2,4.2648263E-2,-1.2121373E-1],"split_indices":[1,2,0,0,4,3,0,0,0,0,0],"split_type":[0,0,0,0,0,0,0,0,0,0,0],"sum_hessian":[8.750176E2,3.4490076E2,5.301168E2,3.3822607E2,6.6746926E0,3.068902E0,3.6057904E0,1.9046521E0,1.1642499E0,1.141619E0,2.4641714E0],"tree_param":{"num_deleted":"0","num_feature":"6","num_nodes":"11","size_leaf_vector":"1"}},{"base_weights":[-6.483776E-2,-5.182024E-1,1.9348313E-1,-1.5637872E-1,-2.0015574E-1,6.846338E-2,-1.21951304E-1,3.1574093E-2,3.3184455E-3],"categories":[],"categories_nodes":[],"categories_segments":[],"categories_sizes":[],"default_left":[1,0,0,0,0,0,0,0,0],"id":58,"left_children":[1,3,-1,-1,5,7,-1,-1,-1],"loss_changes":[2.9248346E2,4.3537903E-1,0E0,0E0,4.1073683E-1,6.9797356E-3,0E0,0E0,0E0],"parents":[2147483647,0,0,1,1,4,4,5,5],"right_children":[2,4,-1,-1,6,8,-1,-1,-1],"split_conditions":[5E0,5E0,1.9348313E-1,-1.5637872E-1,1E0,1.5E1,-1.21951304E-1,3.1574093E-2,3.3184455E-3],"split_indices":[1,1,0,0,4,2,0,0,0],"split_type":[0,0,0,0,0,0,0,0,0],"sum_hessian":[9.0688837E2,5.535711E2,3.5331723E2,5.476631E2,5.9080267E0,2.8570328E0,3.0509942E0,1.2332474E0,1.6237853E0],"tree_param":{"num_deleted":"0","num_feature":"6","num_nodes":"9","size_leaf_vector":"1"}},{"base_weights":[3.6106106E-2,-1.5508074E-1,2.3359339E-1,2.8232276E-1,-1.5179896E-1,2.8486884E-1,-2.4834733E-2,2.6399887E-1,2.896607E-1,-1.09621175E-1,1.3447872E-1,8.7197386E-2,7.2038785E-2,3.2225475E-1,2.7867216E-1,3.660486E-1,-1.3649224E-1,7.317976E-2,1.1487361E-1,7.350552E-2,8.830676E-2,1.3924035E-1,2.9738137E-2,-9.6882805E-2,4.37293E-2],"categories":[],"categories_nodes":[],"categories_segments":[],"categories_sizes":[],"default_left":[0,0,1,0,0,0,0,0,0,0,0,0,0,0,0,0,1,0,0,0,0,0,0,0,0],"id":59,"left_children":[1,-1,3,5,-1,7,9,11,13,-1,15,-1,-1,17,19,21,23,-1,-1,-1,-1,-1,-1,-1,-1],"loss_changes":[1.3746506E2,0E0,3.3562992E1,6.8795776E-1,0E0,9.895325E-3,4.873939E-1,3.999901E-2,1.5804672E-1,0E0,4.4114232E-1,0E0,0E0,7.0513344E-1,2.049408E-1,4.9108714E-2,2.3658505E-1,0E0,0E0,0E0,0E0,0E0,0E0,0E0,0E0],"parents":[2147483647,0,0,2,2,3,3,5,5,6,6,7,7,8,8,10,10,13,13,14,14,15,15,16,16],"right_children":[2,-1,4,6,-1,8,10,12,14,-1,16,-1,-1,18,20,22,24,-1,-1,-1,-1,-1,-1,-1,-1],"split_conditions":[4E0,-1.5508074E-1,5E0,5E0,-1.5179896E-1,2E0,1E0,2E0,3E0,-1.09621175E-1,4E0,8.7197386E-2,7.2038785E-2,2E0,4E0,3E0,7.5E0,7.317976E-2,1.1487361E-1,7.350552E-2,8.830676E-2,1.3924035E-1,2.9738137E-2,-9.6882805E-2,4.37293E-2],"split_indices":[1,0,1,1,0,0,4,3,0,0,0,0,0,3,0,0,2,0,0,0,0,0,0,0,0],"split_type":[0,0,0,0,0,0,0,0,0,0,0,0,0,0,0,0,0,0,0,0,0,0,0,0,0],"sum_hessian":[1.2565159E3,3.3020233E2,9.263136E2,8.696343E2,5.6679325E1,8.625569E2,7.077351E0,1.7154004E2,6.9101685E2,1.8432863E0,5.2340646E0,7.575506E1,9.578498E1,1.6708485E2,5.23932E2,2.6330235E0,2.6010413E0,7.5115395E1,9.196946E1,1.718348E2,3.5209723E2,1.3851705E0,1.2478532E0,1.4795488E0,1.1214924E0],"tree_param":{"num_deleted":"0","num_feature":"6","num_nodes":"25","size_leaf_vector":"1"}},{"base_weights":[6.5846674E-2,1.7357975E-1,-1.4858037E-1,-1.4725561E-1,2.8359953E-1,3.1259835E-1,2.6751116E-1,3.5863787E-1,2.5407013E-1,2.807476E-1,1.9898121E-1,2.9016906E-1,1.6148013E-1,3.2595006E-1,1.3096611E-1,2.3353642E-1,2.9204684E-1,1.4688621E-2,2.2865592E-1,9.902886E-2,6.0939122E-2,7.465325E-2,1.2205512E-1,4.824949E-3,5.7123445E-2,1.3517694E-1,4.2658653E-2,6.2266737E-2,9.447513E-2,4.4296343E-2,7.613801E-2],"categories":[],"categories_nodes":[],"categories_segments":[],"categories_sizes":[],"default_left":[0,0,0,0,0,0,0,0,0,0,0,0,0,0,0,0,0,0,0,0,0,0,0,0,0,0,0,0,0,0,0],"id":60,"left_children":[1,3,-1,-1,5,7,9,11,13,15,17,19,-1,21,23,25,27,-1,29,-1,-1,-1,-1,-1,-1,-1,-1,-1,-1,-1,-1],"loss_changes":[2.0235447E1,2.063464E1,0E0,0E0,2.8894424E-2,1.2478733E-1,9.1132164E-2,3.6550713E-1,2.99824E-1,2.9506683E-3,1.2087357E-1,4.721594E-2,0E0,4.701066E-2,1.0580319E-1,5.45573E-1,1.3489342E-1,0E0,1.2402177E-2,0E0,0E0,0E0,0E0,0E0,0E0,0E0,0E0,0E0,0E0,0E0,0E0],"parents":[2147483647,0,0,1,1,4,4,5,5,6,6,7,7,8,8,9,9,10,10,11,11,13,13,14,14,15,15,16,16,18,18],"right_children":[2,4,-1,-1,6,8,10,12,14,16,18,20,-1,22,24,26,28,-1,30,-1,-1,-1,-1,-1,-1,-1,-1,-1,-1,-1,-1],"split_conditions":[4E0,3E0,-1.4858037E-1,-1.4725561E-1,1E0,2E0,5E0,5E0,4E0,2E0,1E0,1E0,1.6148013E-1,3E0,5E0,1E0,1E0,1.4688621E-2,2E0,9.902886E-2,6.0939122E-2,7.465325E-2,1.2205512E-1,4.824949E-3,5.7123445E-2,1.3517694E-1,4.2658653E-2,6.2266737E-2,9.447513E-2,4.4296343E-2,7.613801E-2],"split_indices":[1,1,0,0,4,3,0,0,0,0,3,3,0,0,0,3,3,0,3,0,0,0,0,0,0,0,0,0,0,0,0],"split_type":[0,0,0,0,0,0,0,0,0,0,0,0,0,0,0,0,0,0,0,0,0,0,0,0,0,0,0,0,0,0,0],"sum_hessian":[3.3232138E2,2.793729E2,5.2948486E1,3.9196396E1,2.401765E2,7.912532E1,1.6105118E2,4.1417706E1,3.770761E1,1.3238461E2,2.8666561E1,3.188106E1,9.536645E0,2.276655E1,1.4941062E1,2.9749989E1,1.0263463E2,5.1716223E0,2.3494938E1,1.9941021E1,1.1940039E1,1.37435465E1,9.023004E0,5.528106E0,9.412956E0,7.6465173E0,2.210347E1,2.400962E1,7.862501E1,7.192413E0,1.6302525E1],"tree_param":{"num_deleted":"0","num_feature":"6","num_nodes":"31","size_leaf_vector":"1"}},{"base_weights":[3.730468E-2,-1.5514097E-1,2.3681991E-1,2.8616387E-1,-1.5186568E-1,2.8875747E-1,-3.0619448E-2,3.0530623E-1,2.8050482E-1,-9.885966E-2,9.5426925E-2,2.8314438E-1,3.3460918E-1,2.9397976E-1,2.5931394E-1,-1.0637662E-1,2.3935677E-1,6.21881E-2,1.0112484E-1,1.3508885E-1,8.736548E-2,9.928958E-2,7.842729E-2,6.732019E-2,8.62698E-2,3.8018007E-2,-9.1466725E-2,-2.7678806E-2,1.7830072E-1],"categories":[],"categories_nodes":[],"categories_segments":[],"categories_sizes":[],"default_left":[0,0,1,0,0,0,0,0,1,0,0,0,0,0,0,0,0,0,0,0,0,0,0,0,0,0,0,0,0],"id":61,"left_children":[1,-1,3,5,-1,7,9,11,13,-1,15,17,19,21,23,25,27,-1,-1,-1,-1,-1,-1,-1,-1,-1,-1,-1,-1],"loss_changes":[1.3973091E2,0E0,3.419789E1,7.2493744E-1,0E0,3.2440186E-2,3.321834E-1,8.4739685E-2,9.20105E-2,0E0,2.1106088E-1,6.0055447E-1,4.386835E-1,3.3815384E-1,1.6974545E-1,1.9376907E-1,5.301169E-1,0E0,0E0,0E0,0E0,0E0,0E0,0E0,0E0,0E0,0E0,0E0,0E0],"parents":[2147483647,0,0,2,2,3,3,5,5,6,6,7,7,8,8,10,10,11,11,12,12,13,13,14,14,15,15,16,16],"right_children":[2,-1,4,6,-1,8,10,12,14,-1,16,18,20,22,24,26,28,-1,-1,-1,-1,-1,-1,-1,-1,-1,-1,-1,-1],"split_conditions":[4E0,-1.5514097E-1,5E0,5E0,-1.5186568E-1,1E0,1.5E1,4E0,4E0,-9.885966E-2,2E0,2E0,1E0,2E0,2E0,4E0,5E0,6.21881E-2,1.0112484E-1,1.3508885E-1,8.736548E-2,9.928958E-2,7.842729E-2,6.732019E-2,8.62698E-2,3.8018007E-2,-9.1466725E-2,-2.7678806E-2,1.7830072E-1],"split_indices":[1,0,1,1,0,4,2,0,0,0,3,3,3,3,3,0,0,0,0,0,0,0,0,0,0,0,0,0,0],"split_type":[0,0,0,0,0,0,0,0,0,0,0,0,0,0,0,0,0,0,0,0,0,0,0,0,0,0,0,0,0],"sum_hessian":[1.2610603E3,3.3328598E2,9.2777435E2,8.7057574E2,5.719861E1,8.635937E2,6.982011E0,2.753831E2,5.8821063E2,1.5920858E0,5.389925E0,1.6286832E2,1.1251477E2,3.5169812E2,2.365125E2,2.3524609E0,3.0374641E0,6.969835E1,9.316996E1,2.8132229E1,8.438254E1,1.6035571E2,1.9134242E2,1.0978518E2,1.26727325E2,1.2482829E0,1.104178E0,1.9530371E0,1.0844271E0],"tree_param":{"num_deleted":"0","num_feature":"6","num_nodes":"29","size_leaf_vector":"1"}},{"base_weights":[-6.880219E-2,4.6456105E-1,-1.5611874E-1,-4.4360724E-1,1.9315197E-1,-1.5205291E-1,1.6175184E-2,2.2402698E-1,-1.3348702E-1,-1.8899404E-2,1.5121995E-1,9.201221E-2,-1.1209025E-1,5.9229795E-2,-5.2914605E-3],"categories":[],"categories_nodes":[],"categories_segments":[],"categories_sizes":[],"default_left":[1,1,0,0,0,0,0,0,0,0,0,0,0,0,0],"id":62,"left_children":[1,3,-1,5,-1,-1,7,9,11,-1,-1,13,-1,-1,-1],"loss_changes":[2.0770544E2,6.466959E1,0E0,1.9208908E0,0E0,0E0,3.0747414E-1,3.6200327E-1,3.492366E-1,0E0,0E0,4.7419157E-2,0E0,0E0,0E0],"parents":[2147483647,0,0,1,1,3,3,6,6,7,7,8,8,11,11],"right_children":[2,4,-1,6,-1,-1,8,10,12,-1,-1,14,-1,-1,-1],"split_conditions":[2E0,1.5E0,-1.5611874E-1,1.5E0,1.9315197E-1,-1.5205291E-1,8E0,4.5E0,4E0,-1.8899404E-2,1.5121995E-1,1E0,-1.1209025E-1,5.9229795E-2,-5.2914605E-3],"split_indices":[1,1,0,1,0,0,2,2,0,0,0,3,0,0,0],"split_type":[0,0,0,0,0,0,0,0,0,0,0,0,0,0,0],"sum_hessian":[8.6033344E2,3.9444174E2,4.658917E2,6.4785416E1,3.296563E2,5.686252E1,7.922895E0,3.1086702E0,4.814225E0,1.9179333E0,1.1907369E0,2.800961E0,2.013264E0,1.0198699E0,1.7810911E0],"tree_param":{"num_deleted":"0","num_feature":"6","num_nodes":"15","size_leaf_vector":"1"}},{"base_weights":[3.7262235E-2,1.5651299E-1,-1.5576029E-1,-1.5378466E-1,2.8451437E-1,2.6440758E-1,8.70132E-2,2.902623E-1,7.2771564E-2,2.3738314E-1,3.1187436E-1,1.1066751E-1,3.9423257E-2,5.563331E-2,1.2174786E-1],"categories":[],"categories_nodes":[],"categories_segments":[],"categories_sizes":[],"default_left":[0,0,0,0,0,1,0,0,0,0,0,0,0,0,0],"id":63,"left_children":[1,3,-1,-1,5,7,-1,9,-1,11,13,-1,-1,-1,-1],"loss_changes":[8.692761E1,9.252229E1,0E0,0E0,2.4040222E-2,4.630184E-2,0E0,2.8326988E-2,0E0,3.72023E-1,6.421356E-1,0E0,0E0,0E0,0E0],"parents":[2147483647,0,0,1,1,4,4,5,5,7,7,9,9,10,10],"right_children":[2,4,-1,-1,6,8,-1,10,-1,12,14,-1,-1,-1,-1],"split_conditions":[4E0,3E0,-1.5576029E-1,-1.5378466E-1,1E0,3E0,8.70132E-2,1E0,7.2771564E-2,2E0,2E0,1.1066751E-1,3.9423257E-2,5.563331E-2,1.2174786E-1],"split_indices":[1,1,0,0,3,0,0,4,0,0,0,0,0,0,0],"split_type":[0,0,0,0,0,0,0,0,0,0,0,0,0,0,0],"sum_hessian":[1.3077418E3,1.077542E3,2.3019989E2,1.7254683E2,9.049952E2,2.0573123E2,6.992639E2,8.856819E1,1.1716304E2,2.917303E1,5.9395164E1,1.19109125E1,1.7262117E1,2.6588762E1,3.28064E1],"tree_param":{"num_deleted":"0","num_feature":"6","num_nodes":"15","size_leaf_vector":"1"}},{"base_weights":[6.691112E-2,-1.4930095E-1,2.4740449E-1,8.711411E-2,-1.4042908E-1],"categories":[],"categories_nodes":[],"categories_segments":[],"categories_sizes":[],"default_left":[1,0,0,0,0],"id":64,"left_children":[1,-1,3,-1,-1],"loss_changes":[3.3020676E1,0E0,7.678544E0,0E0,0E0],"parents":[2147483647,0,0,2,2],"right_children":[2,-1,4,-1,-1],"split_conditions":[4E0,-1.4930095E-1,5E0,8.711411E-2,-1.4042908E-1],"split_indices":[1,0,1,0,0],"split_type":[0,0,0,0,0],"sum_hessian":[3.2183167E2,7.753764E1,2.4429404E2,2.3101265E2,1.3281386E1],"tree_param":{"num_deleted":"0","num_feature":"6","num_nodes":"5","size_leaf_vector":"1"}},{"base_weights":[1.4961384E-1,1.3359882E0,-1.2998305E-1,-8.952055E-2,7.9483557E-1],"categories":[],"categories_nodes":[],"categories_segments":[],"categories_sizes":[],"default_left":[1,0,0,0,0],"id":65,"left_children":[1,3,-1,-1,-1],"loss_changes":[7.4895153E0,8.384024E0,0E0,0E0,0E0],"parents":[2147483647,0,0,1,1],"right_children":[2,4,-1,-1,-1],"split_conditions":[1.5E0,4.5E0,-1.2998305E-1,-8.952055E-2,7.9483557E-1],"split_indices":[1,2,0,0,0],"split_type":[0,0,0,0,0],"sum_hessian":[8.993344E0,2.5372336E0,6.456111E0,1.4748446E0,1.0623891E0],"tree_param":{"num_deleted":"0","num_feature":"6","num_nodes":"5","size_leaf_vector":"1"}},{"base_weights":[-8.028949E-2,3.3402756E-1,-5.1416165E-1,-1.5223822E-1,1.8033205E-1,-1.5563987E-1,-1.8633813E-1,-2.746652E-1,3.659834E-2,1.84627E-2,-1.23425715E-1],"categories":[],"categories_nodes":[],"categories_segments":[],"categories_sizes":[],"default_left":[0,0,0,0,0,0,1,0,0,0,0],"id":66,"left_children":[1,3,5,-1,-1,-1,7,9,-1,-1,-1],"loss_changes":[1.3672403E2,8.777093E1,4.6809387E-1,0E0,0E0,0E0,2.1713075E-1,2.8043002E-1,0E0,0E0,0E0],"parents":[2147483647,0,0,1,1,2,2,6,6,7,7],"right_children":[2,4,6,-1,-1,-1,8,10,-1,-1,-1],"split_conditions":[3E0,2E0,1.000001E1,-1.5223822E-1,1.8033205E-1,-1.5563987E-1,5E0,4.5E0,3.659834E-2,1.84627E-2,-1.23425715E-1],"split_indices":[1,1,1,0,0,0,0,2,0,0,0],"split_type":[0,0,0,0,0,0,0,0,0,0,0],"sum_hessian":[7.5863416E2,3.8818E2,3.7045416E2,9.330459E1,2.948754E2,3.647118E2,5.742392E0,4.548569E0,1.1938227E0,1.474213E0,3.0743563E0],"tree_param":{"num_deleted":"0","num_feature":"6","num_nodes":"11","size_leaf_vector":"1"}},{"base_weights":[4.018539E-2,1.3642517E-1,-1.5427807E-1,-1.5224396E-1,2.2643486E-1,6.853714E-2,-1.3723667E-1,3.5213795E-2,-2.2464436E-1,-5.0825975E-3,-1.0811985E-1],"categories":[],"categories_nodes":[],"categories_segments":[],"categories_sizes":[],"default_left":[1,0,0,0,0,0,0,0,0,0,0],"id":67,"left_children":[1,3,-1,-1,5,-1,7,-1,9,-1,-1],"loss_changes":[6.601805E1,6.1196754E1,0E0,0E0,7.1187973E-1,0E0,1.5415399E-1,0E0,1.2409486E-1,0E0,0E0],"parents":[2147483647,0,0,1,1,4,4,6,6,8,8],"right_children":[2,4,-1,-1,6,-1,8,-1,10,-1,-1],"split_conditions":[4E0,3E0,-1.5427807E-1,-1.5224396E-1,1.6E1,6.853714E-2,4E0,3.5213795E-2,4E0,-5.0825975E-3,-1.0811985E-1],"split_indices":[1,1,0,0,2,0,1,0,0,0,0],"split_type":[0,0,0,0,0,0,0,0,0,0,0],"sum_hessian":[1.2349114E3,1.052904E3,1.8200743E2,1.2856276E2,9.2434125E2,9.195995E2,4.7417717E0,1.1241788E0,3.617593E0,1.8744792E0,1.743114E0],"tree_param":{"num_deleted":"0","num_feature":"6","num_nodes":"11","size_leaf_vector":"1"}},{"base_weights":[-8.1610836E-2,1.8048911E-1,-5.057501E-1,-1.5486409E-1,2.79143E-2,1.767863E-1,-1.522158E-1,-1.23332314E-1,5.3410318E-2,2.6711115E-1,-9.839797E-2,1.6151462E-1,-1.2928948E-2],"categories":[],"categories_nodes":[],"categories_segments":[],"categories_sizes":[],"default_left":[0,0,0,0,0,0,1,0,0,0,0,0,0],"id":68,"left_children":[1,-1,3,-1,5,-1,7,-1,9,11,-1,-1,-1],"loss_changes":[2.0750806E2,0E0,2.4808426E0,0E0,1.0445249E0,0E0,4.4482288E-1,0E0,5.2058333E-1,3.56077E-1,0E0,0E0,0E0],"parents":[2147483647,0,0,2,2,4,4,6,6,8,8,9,9],"right_children":[2,-1,4,-1,6,-1,8,-1,10,12,-1,-1,-1],"split_conditions":[1.5E0,1.8048911E-1,1.000001E1,-1.5486409E-1,3E0,1.767863E-1,2E0,-1.23332314E-1,2E0,3E0,-9.839797E-2,1.6151462E-1,-1.2928948E-2],"split_indices":[1,0,1,0,2,0,0,0,3,0,0,0,0],"split_type":[0,0,0,0,0,0,0,0,0,0,0,0,0],"sum_hessian":[7.1401495E2,2.7331558E2,4.406994E2,4.3225693E2,8.442483E0,1.4991E0,6.943383E0,2.6312423E0,4.3121414E0,2.9557137E0,1.3564273E0,1.1844128E0,1.771301E0],"tree_param":{"num_deleted":"0","num_feature":"6","num_nodes":"13","size_leaf_vector":"1"}},{"base_weights":[-8.079462E-2,-5.132852E-1,1.8047053E-1,-1.551037E-1,-1.8244621E-1,6.8529524E-2,-1.1770556E-1,3.125854E-2,2.998259E-3],"categories":[],"categories_nodes":[],"categories_segments":[],"categories_sizes":[],"default_left":[1,0,0,0,0,0,0,0,0],"id":69,"left_children":[1,3,-1,-1,5,7,-1,-1,-1],"loss_changes":[2.1864635E2,4.6470642E-1,0E0,0E0,3.7436914E-1,7.0075244E-3,0E0,0E0,0E0],"parents":[2147483647,0,0,1,1,4,4,5,5],"right_children":[2,4,-1,-1,6,8,-1,-1,-1],"split_conditions":[5E0,5E0,1.8047053E-1,-1.551037E-1,1E0,2E0,-1.1770556E-1,3.125854E-2,2.998259E-3],"split_indices":[1,1,0,0,4,3,0,0,0],"split_type":[0,0,0,0,0,0,0,0,0],"sum_hessian":[7.3883746E2,4.5236832E2,2.8646918E2,4.467724E2,5.595926E0,2.8553822E0,2.7405436E0,1.2895939E0,1.5657883E0],"tree_param":{"num_deleted":"0","num_feature":"6","num_nodes":"9","size_leaf_vector":"1"}},{"base_weights":[3.789333E-2,-1.5391426E-1,1.9375858E-1,2.2779144E-1,-1.4991024E-1,2.297891E-1,-2.3897573E-2,2.1400984E-1,2.3339055E-1,-1.03845224E-1,1.15189694E-1,7.0617616E-2,5.8453523E-2,2.6002663E-1,2.2442251E-1,3.1614333E-1,-1.3215698E-1,5.9627883E-2,9.21123E-2,7.3290706E-2,6.1995223E-2,1.2281574E-1,2.3393176E-2,-9.791022E-2,4.275E-2],"categories":[],"categories_nodes":[],"categories_segments":[],"categories_sizes":[],"default_left":[0,0,1,0,0,0,0,0,0,0,0,0,0,0,0,0,0,0,0,0,0,0,0,0,0],"id":70,"left_children":[1,-1,3,5,-1,7,9,11,13,-1,15,-1,-1,17,19,21,23,-1,-1,-1,-1,-1,-1,-1,-1],"loss_changes":[1.0361793E2,0E0,2.2307213E1,4.565277E-1,0E0,6.3323975E-4,3.970888E-1,2.68507E-2,1.1212158E-1,0E0,3.5578442E-1,0E0,0E0,4.3859482E-1,1.4072227E-1,5.202794E-2,2.3517461E-1,0E0,0E0,0E0,0E0,0E0,0E0,0E0,0E0],"parents":[2147483647,0,0,2,2,3,3,5,5,6,6,7,7,8,8,10,10,13,13,14,14,15,15,16,16],"right_children":[2,-1,4,6,-1,8,10,12,14,-1,16,-1,-1,18,20,22,24,-1,-1,-1,-1,-1,-1,-1,-1],"split_conditions":[4E0,-1.5391426E-1,5E0,5E0,-1.4991024E-1,2E0,1E0,2E0,3E0,-1.03845224E-1,4E0,7.0617616E-2,5.8453523E-2,2E0,2E0,2E0,2E0,5.9627883E-2,9.21123E-2,7.3290706E-2,6.1995223E-2,1.2281574E-1,2.3393176E-2,-9.791022E-2,4.275E-2],"split_indices":[1,0,1,1,0,0,4,3,0,0,0,0,0,3,3,3,3,0,0,0,0,0,0,0,0],"split_type":[0,0,0,0,0,0,0,0,0,0,0,0,0,0,0,0,0,0,0,0,0,0,0,0,0],"sum_hessian":[1.2044906E3,2.6510956E2,9.393811E2,8.960759E2,4.330517E1,8.8910614E2,6.9697766E0,1.764481E2,7.12658E2,1.6524537E0,5.3173227E0,7.806649E1,9.8381615E1,1.7245428E2,5.4020374E2,2.780336E0,2.536987E0,7.714713E1,9.530715E1,2.4896281E2,2.9124094E2,1.4814404E0,1.2988954E0,1.3758491E0,1.1611378E0],"tree_param":{"num_deleted":"0","num_feature":"6","num_nodes":"25","size_leaf_vector":"1"}},{"base_weights":[7.153095E-2,1.5972242E-1,-1.4776821E-1,-1.458941E-1,2.3754692E-1,2.5828287E-1,2.2580412E-1,2.8884092E-1,2.1743873E-1,7.047719E-2,1.7638318E-1,2.3746386E-1,1.2510023E-1,2.7121443E-1,1.200676E-1,1.5112712E-2,1.9996548E-1,7.902748E-2,5.285677E-2,6.34256E-2,9.943821E-2,5.0158063E-3,5.1590603E-2,4.0744744E-2,6.55387E-2],"categories":[],"categories_nodes":[],"categories_segments":[],"categories_sizes":[],"default_left":[0,0,0,0,0,0,0,0,0,0,0,0,0,0,0,0,0,0,0,0,0,0,0,0,0],"id":71,"left_children":[1,3,-1,-1,5,7,9,11,13,-1,15,17,-1,19,21,-1,23,-1,-1,-1,-1,-1,-1,-1,-1],"loss_changes":[1.6403097E1,1.4421001E1,0E0,0E0,3.6764145E-3,4.341364E-2,3.5413742E-2,2.0146847E-1,1.7932928E-1,0E0,8.078408E-2,9.104133E-3,0E0,2.0975709E-2,8.397628E-2,0E0,4.90427E-4,0E0,0E0,0E0,0E0,0E0,0E0,0E0,0E0],"parents":[2147483647,0,0,1,1,4,4,5,5,6,6,7,7,8,8,10,10,11,11,13,13,14,14,16,16],"right_children":[2,4,-1,-1,6,8,10,12,14,-1,16,18,-1,20,22,-1,24,-1,-1,-1,-1,-1,-1,-1,-1],"split_conditions":[4E0,3E0,-1.4776821E-1,-1.458941E-1,1E0,2E0,5E0,5E0,4E0,7.047719E-2,1E0,1E0,1.2510023E-1,3E0,5E0,1.5112712E-2,2E0,7.902748E-2,5.285677E-2,6.34256E-2,9.943821E-2,5.0158063E-3,5.1590603E-2,4.0744744E-2,6.55387E-2],"split_indices":[1,1,0,0,4,3,0,0,0,0,3,3,0,0,0,0,3,0,0,0,0,0,0,0,0],"split_type":[0,0,0,0,0,0,0,0,0,0,0,0,0,0,0,0,0,0,0,0,0,0,0,0,0],"sum_hessian":[3.2714188E2,2.8353085E2,4.3611046E1,2.9918966E1,2.5361188E2,8.4103325E1,1.6950856E2,4.4636345E1,3.946698E1,1.3993277E2,2.9575788E1,3.3899494E1,1.073685E1,2.4275078E1,1.5191903E1,5.1569242E0,2.4418863E1,2.149382E1,1.2405673E1,1.4446168E1,9.82891E0,5.5207744E0,9.671128E0,7.3322473E0,1.7086617E1],"tree_param":{"num_deleted":"0","num_feature":"6","num_nodes":"25","size_leaf_vector":"1"}},{"base_weights":[3.886776E-2,-1.5396439E-1,1.963607E-1,2.3081836E-1,-1.4997259E-1,2.3287573E-1,-3.121103E-2,2.264414E-1,2.5383088E-1,-9.651799E-2,8.3144724E-2,2.3403153E-1,2.0004198E-1,2.170108E-1,8.4102E-2,-1.078543E-1,2.2169748E-1,7.498402E-2,6.756306E-2,8.172864E-2,5.24909E-2,8.431102E-2,5.368032E-2,-9.427608E-2,5.213048E-2,-1.8404635E-2,1.4010903E-1],"categories":[],"categories_nodes":[],"categories_segments":[],"categories_sizes":[],"default_left":[0,0,1,0,0,0,0,0,0,0,0,0,0,0,0,1,0,0,0,0,0,0,0,0,0,0,0],"id":72,"left_children":[1,-1,3,5,-1,7,9,11,13,-1,15,17,19,21,-1,23,25,-1,-1,-1,-1,-1,-1,-1,-1,-1,-1],"loss_changes":[1.0521068E2,0E0,2.2698341E1,4.911461E-1,0E0,6.2618256E-2,2.8835514E-1,9.159088E-2,1.3532925E-1,0E0,1.9446623E-1,1.8201828E-2,2.4476767E-1,1.6559649E-1,0E0,2.5121245E-1,3.1075937E-1,0E0,0E0,0E0,0E0,0E0,0E0,0E0,0E0,0E0,0E0],"parents":[2147483647,0,0,2,2,3,3,5,5,6,6,7,7,8,8,10,10,11,11,12,12,13,13,15,15,16,16],"right_children":[2,-1,4,6,-1,8,10,12,14,-1,16,18,20,22,-1,24,26,-1,-1,-1,-1,-1,-1,-1,-1,-1,-1],"split_conditions":[4E0,-1.5396439E-1,5E0,5E0,-1.4997259E-1,5E0,1E0,4E0,2E0,-9.651799E-2,2E0,2E0,1E0,1E0,8.4102E-2,3E0,5E0,7.498402E-2,6.756306E-2,8.172864E-2,5.24909E-2,8.431102E-2,5.368032E-2,-9.427608E-2,5.213048E-2,-1.8404635E-2,1.4010903E-1],"split_indices":[1,0,1,1,0,0,4,0,3,0,3,0,3,4,0,0,0,0,0,0,0,0,0,0,0,0,0],"split_type":[0,0,0,0,0,0,0,0,0,0,0,0,0,0,0,0,0,0,0,0,0,0,0,0,0,0,0],"sum_hessian":[1.2078673E3,2.6758945E2,9.402779E2,8.965758E2,4.3702114E1,8.8970135E2,6.8744273E0,6.8972516E2,1.9997623E2,1.4294897E0,5.4449377E0,5.295955E2,1.6012964E2,8.755382E1,1.124224E2,2.3823557E0,3.062582E0,1.791124E2,3.504831E2,3.865688E1,1.2147276E2,3.0271343E1,5.7282475E1,1.307921E0,1.0744345E0,1.7701976E0,1.2923843E0],"tree_param":{"num_deleted":"0","num_feature":"6","num_nodes":"27","size_leaf_vector":"1"}},{"base_weights":[-8.435178E-2,4.3505657E-1,-1.5489963E-1,-4.2299363E-1,1.8022072E-1,-1.5010576E-1,1.54469265E-2,1.991859E-1,-1.2149366E-1,-1.757067E-2,1.3255656E-1,8.788885E-2,-1.078961E-1,5.5235595E-2,-4.514846E-3],"categories":[],"categories_nodes":[],"categories_segments":[],"categories_sizes":[],"default_left":[1,1,0,0,0,0,0,0,0,0,0,0,0,0,0],"id":73,"left_children":[1,3,-1,5,-1,-1,7,9,11,-1,-1,13,-1,-1,-1],"loss_changes":[1.577774E2,4.5656464E1,0E0,1.7807112E0,0E0,0E0,2.4587089E-1,2.8489614E-1,3.143018E-1,0E0,0E0,4.061444E-2,0E0,0E0,0E0],"parents":[2147483647,0,0,1,1,3,3,6,6,7,7,8,8,11,11],"right_children":[2,4,-1,6,-1,-1,8,10,12,-1,-1,14,-1,-1,-1],"split_conditions":[2E0,1.5E0,-1.5489963E-1,1.5E0,1.8022072E-1,-1.5010576E-1,8E0,4.5E0,4E0,-1.757067E-2,1.3255656E-1,1E0,-1.078961E-1,5.5235595E-2,-4.514846E-3],"split_indices":[1,1,0,1,0,0,2,2,0,0,0,3,0,0,0],"split_type":[0,0,0,0,0,0,0,0,0,0,0,0,0,0,0],"sum_hessian":[7.011876E2,3.1837268E2,3.828149E2,5.1273716E1,2.6709897E2,4.3463722E1,7.8099923E0,3.1410162E0,4.6689763E0,1.8910532E0,1.2499629E0,2.8203678E0,1.8486084E0,1.0500861E0,1.7702817E0],"tree_param":{"num_deleted":"0","num_feature":"6","num_nodes":"15","size_leaf_vector":"1"}},{"base_weights":[3.8539823E-2,1.3747826E-1,-1.5448427E-1,-1.5235636E-1,2.2908843E-1,2.1415146E-1,2.3318104E-1,2.3547238E-1,5.888728E-2,2.4775411E-1,2.2612758E-1,1.9524917E-1,2.5163707E-1,9.2254154E-2,2.31912E-1,6.361713E-2,2.4485976E-1,9.019889E-2,3.271033E-2,4.559551E-2,9.733393E-2,5.5983275E-2,7.37494E-2,8.270265E-2,6.846879E-2],"categories":[],"categories_nodes":[],"categories_segments":[],"categories_sizes":[],"default_left":[0,0,0,0,0,1,0,0,0,0,0,0,0,0,1,0,0,0,0,0,0,0,0,0,0],"id":74,"left_children":[1,3,-1,-1,5,7,9,11,-1,13,15,17,19,-1,21,-1,23,-1,-1,-1,-1,-1,-1,-1,-1],"loss_changes":[6.872742E1,6.3043167E1,0E0,0E0,7.091522E-3,3.4837723E-2,1.807785E-2,1.0700226E-2,0E0,1.4138412E-1,7.913399E-2,2.4752104E-1,4.0183854E-1,0E0,6.867218E-2,0E0,4.307747E-2,0E0,0E0,0E0,0E0,0E0,0E0,0E0,0E0],"parents":[2147483647,0,0,1,1,4,4,5,5,6,6,7,7,9,9,10,10,11,11,12,12,14,14,16,16],"right_children":[2,4,-1,-1,6,8,10,12,-1,14,16,18,20,-1,22,-1,24,-1,-1,-1,-1,-1,-1,-1,-1],"split_conditions":[4E0,3E0,-1.5448427E-1,-1.5235636E-1,1E0,3E0,2E0,1E0,5.888728E-2,2E0,4E0,2E0,2E0,9.2254154E-2,3E0,6.361713E-2,1E0,9.019889E-2,3.271033E-2,4.559551E-2,9.733393E-2,5.5983275E-2,7.37494E-2,8.270265E-2,6.846879E-2],"split_indices":[1,1,0,0,3,0,3,4,0,0,0,0,0,0,0,0,4,0,0,0,0,0,0,0,0],"split_type":[0,0,0,0,0,0,0,0,0,0,0,0,0,0,0,0,0,0,0,0,0,0,0,0,0],"sum_hessian":[1.2527463E3,1.0634087E3,1.8933765E2,1.3162865E2,9.317801E2,2.1186322E2,7.199169E2,9.102206E1,1.2084117E2,2.2366985E2,4.9624704E2,2.9842524E1,6.1179535E1,4.301129E1,1.8065854E2,2.9042087E2,2.0582619E2,1.2307235E1,1.7535288E1,2.7132074E1,3.404746E1,4.5848656E1,1.3480989E2,6.6684814E1,1.3914137E2],"tree_param":{"num_deleted":"0","num_feature":"6","num_nodes":"25","size_leaf_vector":"1"}},{"base_weights":[7.085183E-2,-1.4862135E-1,2.1037193E-1,2.3991255E-1,-1.3731365E-1,2.4705209E-1,2.1007866E-1,2.3447713E-1,2.7576217E-1,2.784252E-2,6.990665E-2,2.9599643E-1,2.1457507E-1,4.7151074E-2,2.993852E-1,5.7463016E-2,9.9287495E-2,4.9567755E-2,6.997784E-2,1.1516399E-1,7.2854236E-2],"categories":[],"categories_nodes":[],"categories_segments":[],"categories_sizes":[],"default_left":[1,0,0,0,0,0,0,0,0,0,0,0,0,0,0,0,0,0,0,0,0],"id":75,"left_children":[1,-1,3,5,-1,7,9,11,13,-1,-1,15,17,-1,19,-1,-1,-1,-1,-1,-1],"loss_changes":[2.5294172E1,0E0,5.172303E0,5.645752E-4,0E0,5.0411224E-3,1.24322176E-1,1.09046936E-1,1.0177851E-1,0E0,0E0,5.279088E-2,6.3001156E-2,0E0,1.1313057E-1,0E0,0E0,0E0,0E0,0E0,0E0],"parents":[2147483647,0,0,2,2,3,3,5,5,6,6,7,7,8,8,11,11,12,12,14,14],"right_children":[2,-1,4,6,-1,8,10,12,14,-1,-1,16,18,-1,20,-1,-1,-1,-1,-1,-1],"split_conditions":[4E0,-1.4862135E-1,5E0,5E0,-1.3731365E-1,4E0,1E0,1E0,1E0,2.784252E-2,6.990665E-2,1E0,2E0,4.7151074E-2,2E0,5.7463016E-2,9.9287495E-2,4.9567755E-2,6.997784E-2,1.1516399E-1,7.2854236E-2],"split_indices":[1,0,1,0,0,0,3,3,3,0,0,4,3,0,3,0,0,0,0,0,0],"split_type":[0,0,0,0,0,0,0,0,0,0,0,0,0,0,0,0,0,0,0,0,0],"sum_hessian":[3.1784348E2,6.2328053E1,2.5551544E2,2.453095E2,1.0205939E1,1.9206546E2,5.3244038E1,1.3993936E2,5.2126102E1,9.537982E0,4.3706055E1,3.0814848E1,1.0912451E2,9.929819E0,4.2196285E1,9.352297E0,2.1462551E1,3.2672615E1,7.64519E1,1.4594794E1,2.760149E1],"tree_param":{"num_deleted":"0","num_feature":"6","num_nodes":"21","size_leaf_vector":"1"}},{"base_weights":[1.6898532E-1,-1.3168105E-1,6.1608464E-1],"categories":[],"categories_nodes":[],"categories_segments":[],"categories_sizes":[],"default_left":[0,0,0],"id":76,"left_children":[1,-1,-1],"loss_changes":[1.1990617E1,0E0,0E0],"parents":[2147483647,0,0],"right_children":[2,-1,-1],"split_conditions":[1.000001E1,-1.3168105E-1,6.1608464E-1],"split_indices":[1,0,0],"split_type":[0,0,0],"sum_hessian":[8.67891E0,7.142169E0,1.5367416E0],"tree_param":{"num_deleted":"0","num_feature":"6","num_nodes":"3","size_leaf_vector":"1"}},{"base_weights":[-9.807462E-2,3.2062373E-1,-5.0957847E-1,-1.5076765E-1,1.7142609E-1,-1.5453224E-1,-1.6870552E-1,-2.5527704E-1,3.3199992E-2,-1.2032769E-1,1.6751004E-2],"categories":[],"categories_nodes":[],"categories_segments":[],"categories_sizes":[],"default_left":[0,0,0,0,0,0,1,1,0,0,0],"id":77,"left_children":[1,3,5,-1,-1,-1,7,9,-1,-1,-1],"loss_changes":[1.0598456E2,6.326387E1,4.97612E-1,0E0,0E0,0E0,1.8393864E-1,2.5905478E-1,0E0,0E0,0E0],"parents":[2147483647,0,0,1,1,2,2,6,6,7,7],"right_children":[2,4,6,-1,-1,-1,8,10,-1,-1,-1],"split_conditions":[3E0,2E0,1.000001E1,-1.5076765E-1,1.7142609E-1,-1.5453224E-1,5E0,4E0,3.3199992E-2,-1.2032769E-1,1.6751004E-2],"split_indices":[1,1,1,0,0,0,0,2,0,0,0],"split_type":[0,0,0,0,0,0,0,0,0,0,0],"sum_hessian":[6.131825E2,3.0404382E2,3.0913867E2,7.076617E1,2.3327765E2,3.0370148E2,5.437201E0,4.216763E0,1.220438E0,2.6741884E0,1.5425745E0],"tree_param":{"num_deleted":"0","num_feature":"6","num_nodes":"11","size_leaf_vector":"1"}},{"base_weights":[4.022637E-2,1.1991408E-1,-1.5323009E-1,-1.5101928E-1,1.8467341E-1,1.8633541E-1,-1.2722535E-1,1.7603712E-1,1.9024241E-1,3.147706E-2,-2.1048881E-1,1.612208E-1,2.2036415E-1,1.9147271E-1,-1.1578969E-1,-1.0515472E-1,-4.4309956E-4,5.5378053E-2,2.8000588E-2,4.8343047E-2,7.591584E-2,5.43204E-2,6.167899E-2,2.9523639E-2,-9.013021E-2],"categories":[],"categories_nodes":[],"categories_segments":[],"categories_sizes":[],"default_left":[1,0,0,0,0,0,0,0,0,0,1,0,0,0,0,0,0,0,0,0,0,0,0,0,0],"id":78,"left_children":[1,3,-1,-1,5,7,9,11,13,-1,15,17,19,21,23,-1,-1,-1,-1,-1,-1,-1,-1,-1,-1],"loss_changes":[5.2441425E1,4.2195755E1,0E0,0E0,5.138893E-1,4.371643E-3,1.3045329E-1,1.4324665E-1,2.7435303E-1,0E0,1.2998585E-1,3.1238413E-1,8.595276E-2,6.0865402E-2,1.6028483E-1,0E0,0E0,0E0,0E0,0E0,0E0,0E0,0E0,0E0,0E0],"parents":[2147483647,0,0,1,1,4,4,5,5,6,6,7,7,8,8,10,10,11,11,12,12,13,13,14,14],"right_children":[2,4,-1,-1,6,8,10,12,14,-1,16,18,20,22,24,-1,-1,-1,-1,-1,-1,-1,-1,-1,-1],"split_conditions":[4E0,3E0,-1.5323009E-1,-1.5101928E-1,1.6E1,1E0,4E0,5E0,1.000001E1,3.147706E-2,3E0,4E0,2E0,4E0,4E0,-1.0515472E-1,-4.4309956E-4,5.5378053E-2,2.8000588E-2,4.8343047E-2,7.591584E-2,5.43204E-2,6.167899E-2,2.9523639E-2,-9.013021E-2],"split_indices":[1,1,0,0,2,4,1,0,0,0,0,0,3,0,2,0,0,0,0,0,0,0,0,0,0],"split_type":[0,0,0,0,0,0,0,0,0,0,0,0,0,0,0,0,0,0,0,0,0,0,0,0,0],"sum_hessian":[1.1919695E3,1.0420454E3,1.4992403E2,9.7436935E1,9.446085E2,9.4000214E2,4.606352E0,2.712043E2,6.6879785E2,1.1473256E0,3.459026E0,2.067389E2,6.44654E1,6.664928E2,2.3050485E0,1.6659282E0,1.793098E0,1.5251088E2,5.4228024E1,2.5036835E1,3.942857E1,3.9173337E2,2.7475943E2,1.2833177E0,1.0217308E0],"tree_param":{"num_deleted":"0","num_feature":"6","num_nodes":"25","size_leaf_vector":"1"}},{"base_weights":[-9.846384E-2,5.524592E-1,-1.5387699E-1,1.7153841E-1,3.0952992E-2,1.6180173E-1,-1.3828E-1,-1.1804041E-1,5.1733185E-2,2.4450073E-1,-9.410192E-2,1.4370117E-1,-1.116295E-2],"categories":[],"categories_nodes":[],"categories_segments":[],"categories_sizes":[],"default_left":[1,0,0,0,0,0,1,0,0,0,0,0,0],"id":79,"left_children":[1,3,-1,-1,5,-1,7,-1,9,11,-1,-1,-1],"loss_changes":[1.5641226E2,2.2573547E0,0E0,0E0,8.595086E-1,0E0,3.908466E-1,0E0,4.4744143E-1,2.8257695E-1,0E0,0E0,0E0],"parents":[2147483647,0,0,1,1,4,4,6,6,8,8,9,9],"right_children":[2,4,-1,-1,6,-1,8,-1,10,12,-1,-1,-1],"split_conditions":[1.5E0,1.5E0,-1.5387699E-1,1.7153841E-1,3E0,1.6180173E-1,2E0,-1.1804041E-1,2E0,3E0,-9.410192E-2,1.4370117E-1,-1.116295E-2],"split_indices":[1,1,0,0,2,0,0,0,3,0,0,0,0],"split_type":[0,0,0,0,0,0,0,0,0,0,0,0,0],"sum_hessian":[5.777242E2,2.2461908E2,3.5310507E2,2.1649579E2,8.123291E0,1.4825774E0,6.640713E0,2.3772807E0,4.2634325E0,3.0076482E0,1.2557843E0,1.2591547E0,1.7484934E0],"tree_param":{"num_deleted":"0","num_feature":"6","num_nodes":"13","size_leaf_vector":"1"}},{"base_weights":[-9.83366E-2,-5.0908774E-1,1.7153159E-1,-1.5407857E-1,-1.6811208E-1,5.831753E-2,-1.12954594E-1,8.931169E-2,-9.527255E-2],"categories":[],"categories_nodes":[],"categories_segments":[],"categories_sizes":[],"default_left":[1,0,0,0,0,1,0,0,0],"id":80,"left_children":[1,3,-1,-1,5,7,-1,-1,-1],"loss_changes":[1.6496838E2,4.8455048E-1,0E0,0E0,3.2079804E-1,4.45578E-1,0E0,0E0,0E0],"parents":[2147483647,0,0,1,1,4,4,5,5],"right_children":[2,4,-1,-1,6,8,-1,-1,-1],"split_conditions":[5E0,5E0,1.7153159E-1,-1.5407857E-1,1E0,9E0,-1.12954594E-1,8.931169E-2,